{"learner":{"attributes":{},"feature_names":["payout","total_bet","type_Even","type_Odd","color_Black","color_Red","color_White","online_players","bank_profit","rolling_sum","open","close","high","low","velocity","acceleration","basis","dev","upperBB","lowerBB","ema_short","ema_long","MACD","Signal_Line","MACD_Histogram","MACD_Histogram_Signal_Interaction","MA_short","MA_long","Slope_MA_long","MA_longer","acumulado_comum"],"feature_types":["float","float","i","i","i","i","i","float","float","float","float","float","float","float","float","float","float","float","float","float","float","float","float","float","float","float","float","float","float","float","int"],"gradient_booster":{"model":{"gbtree_model_param":{"num_parallel_tree":"1","num_trees":"100"},"iteration_indptr":[0,1,2,3,4,5,6,7,8,9,10,11,12,13,14,15,16,17,18,19,20,21,22,23,24,25,26,27,28,29,30,31,32,33,34,35,36,37,38,39,40,41,42,43,44,45,46,47,48,49,50,51,52,53,54,55,56,57,58,59,60,61,62,63,64,65,66,67,68,69,70,71,72,73,74,75,76,77,78,79,80,81,82,83,84,85,86,87,88,89,90,91,92,93,94,95,96,97,98,99,100],"tree_info":[0,0,0,0,0,0,0,0,0,0,0,0,0,0,0,0,0,0,0,0,0,0,0,0,0,0,0,0,0,0,0,0,0,0,0,0,0,0,0,0,0,0,0,0,0,0,0,0,0,0,0,0,0,0,0,0,0,0,0,0,0,0,0,0,0,0,0,0,0,0,0,0,0,0,0,0,0,0,0,0,0,0,0,0,0,0,0,0,0,0,0,0,0,0,0,0,0,0,0,0],"trees":[{"base_weights":[-2.4081455E-8,1.1093148E0,-5.787979E-1,1.1662793E0,-1.6428857E-1,-2.5576186E-1,-1.4343876E0,1.4730521E0,9.5250213E-1,1.8936378E-1,-1.1573545E0,5.7435315E-2,-5.8658224E-1,-1.3974876E0,-1.9575286E0,1.5063877E0,-3.1195667E-1,9.686423E-1,-7.0978487E-1,-5.200858E-1,3.9701483E-1,1.0256121E0,-1.3872751E0,4.3465406E-1,-1.2717001E-2,-6.520021E-1,1.0062845E0,-1.4183226E0,-5.7276106E-1,-1.4040455E0,-1.9922331E-1,1.6274816E0,1.3410901E0,-1.8164169E0,1.07241E0,1.1534568E0,8.2152444E-1,4.1848797E-1,-1.5432738E0,4.1528177E-1,-1.3988794E0,6.265115E-1,-1.3866806E-1,-1.2727273E-1,1.732855E-1,-6.5052176E-1,-1.7313912E0,1.8761599E-1,5.388165E-1,3.845933E-2,-4.02424E-1,-1.1775599E0,-5.97906E-1,-5.7726365E-1,1.2661054E0,-1.3500496E0,-1.7589256E0,-2.667317E-1,-1.8918918E-1,7.186231E-2,-1.7014215E0,-4.2276535E-2,1.6375057E-1,1.3967197E-1,7.6357216E-2,-1.925926E-1,4.7501214E-3,1.6825774E-1,-1.2574117E-1,1.2100484E-1,6.772889E-2,3.5550862E-3,8.414561E-2,-1.5294118E-1,8.991832E-2,-1.7820822E-1,1.23711936E-1,-1.5789475E-1,7.736004E-2,3.9827894E-2,-1.7907777E-1,5.1427316E-2,1.6887522E-1,-1.4567429E-1,3.1496108E-2,-1.1792522E-1,3.139354E-2,-1.9500001E-1,-1.1057228E-1,-4.6057298E-4,6.9290005E-2,-8.903267E-2,5.6895692E-2,7.3039285E-3,-5.3381503E-2,-1.5699523E-2,-7.0906036E-2,3.276957E-2,-1.3293102E-1,1.6217296E-1,-6.077084E-2,1.5093972E-1,-1.0471638E-1,1.523251E-1,-5.8223344E-3,-1.481917E-1,-1.2295014E-1,-8.157175E-2,-1.8142176E-1,8.812585E-2,-8.412402E-2,-1.875E-1,4.7501214E-3],"categories":[],"categories_nodes":[],"categories_segments":[],"categories_sizes":[],"default_left":[0,0,0,0,0,0,0,0,0,0,0,0,0,0,0,0,0,0,0,0,0,0,0,0,0,0,0,0,0,0,0,0,0,0,0,0,0,0,0,0,0,0,0,0,0,0,0,0,0,0,0,0,0,0,0,0,0,0,0,0,0,0,0,0,0,0,0,0,0,0,0,0,0,0,0,0,0,0,0,0,0,0,0,0,0,0,0,0,0,0,0,0,0,0,0,0,0,0,0,0,0,0,0,0,0,0,0,0,0,0,0,0,0],"id":0,"left_children":[1,3,5,7,9,11,13,15,17,19,21,23,25,27,29,31,33,35,37,39,41,43,45,47,49,51,53,55,57,59,-1,61,63,65,67,69,71,73,75,77,79,81,83,-1,-1,85,87,89,91,93,95,97,99,101,103,105,107,109,-1,-1,111,-1,-1,-1,-1,-1,-1,-1,-1,-1,-1,-1,-1,-1,-1,-1,-1,-1,-1,-1,-1,-1,-1,-1,-1,-1,-1,-1,-1,-1,-1,-1,-1,-1,-1,-1,-1,-1,-1,-1,-1,-1,-1,-1,-1,-1,-1,-1,-1,-1,-1,-1,-1],"loss_changes":[1.5078992E4,5.843828E2,4.2650405E3,5.0406934E2,1.2159745E2,1.1609231E3,7.891113E1,1.8871143E2,1.2263135E2,3.7877335E1,4.7045776E1,1.5233334E2,5.6845825E2,6.713672E1,2.5078125E0,5.998242E1,1.2446345E2,1.2145459E2,4.2290607E1,4.8529007E1,2.4475191E1,1.7219345E1,1.9830948E1,2.3126678E1,9.683517E1,1.4811694E2,8.933566E1,8.729932E1,3.9507507E1,1.3646851E1,0E0,3.7435547E1,4.1303955E1,5.921196E0,4.6559734E1,5.2881104E1,3.9291626E1,1.9729004E1,1.9257305E1,2.1963453E1,2.2056503E1,1.571106E1,3.6523933E1,0E0,0E0,1.4607176E1,5.468216E0,2.6155354E1,2.7834015E1,8.4975E1,4.2303543E1,1.1178754E2,1.04292725E2,3.2016663E1,6.3196014E1,4.9311035E1,3.1928955E1,5.45691E1,0E0,0E0,5.420101E0,0E0,0E0,0E0,0E0,0E0,0E0,0E0,0E0,0E0,0E0,0E0,0E0,0E0,0E0,0E0,0E0,0E0,0E0,0E0,0E0,0E0,0E0,0E0,0E0,0E0,0E0,0E0,0E0,0E0,0E0,0E0,0E0,0E0,0E0,0E0,0E0,0E0,0E0,0E0,0E0,0E0,0E0,0E0,0E0,0E0,0E0,0E0,0E0,0E0,0E0,0E0,0E0],"parents":[2147483647,0,0,1,1,2,2,3,3,4,4,5,5,6,6,7,7,8,8,9,9,10,10,11,11,12,12,13,13,14,14,15,15,16,16,17,17,18,18,19,19,20,20,21,21,22,22,23,23,24,24,25,25,26,26,27,27,28,28,29,29,31,31,32,32,33,33,34,34,35,35,36,36,37,37,38,38,39,39,40,40,41,41,42,42,45,45,46,46,47,47,48,48,49,49,50,50,51,51,52,52,53,53,54,54,55,55,56,56,57,57,60,60],"right_children":[2,4,6,8,10,12,14,16,18,20,22,24,26,28,30,32,34,36,38,40,42,44,46,48,50,52,54,56,58,60,-1,62,64,66,68,70,72,74,76,78,80,82,84,-1,-1,86,88,90,92,94,96,98,100,102,104,106,108,110,-1,-1,112,-1,-1,-1,-1,-1,-1,-1,-1,-1,-1,-1,-1,-1,-1,-1,-1,-1,-1,-1,-1,-1,-1,-1,-1,-1,-1,-1,-1,-1,-1,-1,-1,-1,-1,-1,-1,-1,-1,-1,-1,-1,-1,-1,-1,-1,-1,-1,-1,-1,-1,-1,-1],"split_conditions":[-5.431883E4,1.5E1,2E1,-1.9266697E5,1.9E1,3.744305E4,-1.6061531E-2,-3.1248355E-2,-2.820491E-2,-2.7363108E-2,-4.8430297E-1,-3.7506584E-2,7.122403E-2,1.5425567E-2,2.2E1,-4.475083E-2,6.292693E5,-3.5311267E-2,-8.567186E4,-2.3463239E5,-1.13168555E5,2.6E1,2E1,-5.6509443E-2,1.5E1,-9.9431975E-3,-4.253267E-2,2.86016E5,2.9105406E5,-7.143416E-2,-1.9922331E-1,-1.9893266E0,-4.669553E-2,3.105631E5,4.695288E7,-4.004732E-2,-7.375656E-2,-1.1203949E5,-2.6660651E-2,-6.723E3,-3.8982432E-2,-8.6462766E4,-8.807873E-3,-1.2727273E-1,1.732855E-1,2.60192E3,-6.809268E4,4.54262E3,-4.11544E4,-3.1530205E-2,-2.162457E4,3.397958E4,-5.1455323E-2,-3.3152338E-2,3.1098335E0,-4.4760823E-2,1.9528119E5,-8.493186E8,-1.8918918E-1,7.186231E-2,6.7488635E-3,-4.2276535E-2,1.6375057E-1,1.3967197E-1,7.6357216E-2,-1.925926E-1,4.7501214E-3,1.6825774E-1,-1.2574117E-1,1.2100484E-1,6.772889E-2,3.5550862E-3,8.414561E-2,-1.5294118E-1,8.991832E-2,-1.7820822E-1,1.23711936E-1,-1.5789475E-1,7.736004E-2,3.9827894E-2,-1.7907777E-1,5.1427316E-2,1.6887522E-1,-1.4567429E-1,3.1496108E-2,-1.1792522E-1,3.139354E-2,-1.9500001E-1,-1.1057228E-1,-4.6057298E-4,6.9290005E-2,-8.903267E-2,5.6895692E-2,7.3039285E-3,-5.3381503E-2,-1.5699523E-2,-7.0906036E-2,3.276957E-2,-1.3293102E-1,1.6217296E-1,-6.077084E-2,1.5093972E-1,-1.0471638E-1,1.523251E-1,-5.8223344E-3,-1.481917E-1,-1.2295014E-1,-8.157175E-2,-1.8142176E-1,8.812585E-2,-8.412402E-2,-1.875E-1,4.7501214E-3],"split_indices":[9,30,30,9,30,9,29,29,27,23,29,26,23,26,30,26,18,26,9,12,20,30,30,29,30,22,17,18,21,17,0,24,27,21,18,1,27,9,1,14,22,21,26,0,0,14,12,9,12,29,21,16,26,26,7,29,12,25,0,0,15,0,0,0,0,0,0,0,0,0,0,0,0,0,0,0,0,0,0,0,0,0,0,0,0,0,0,0,0,0,0,0,0,0,0,0,0,0,0,0,0,0,0,0,0,0,0,0,0,0,0,0,0],"split_type":[0,0,0,0,0,0,0,0,0,0,0,0,0,0,0,0,0,0,0,0,0,0,0,0,0,0,0,0,0,0,0,0,0,0,0,0,0,0,0,0,0,0,0,0,0,0,0,0,0,0,0,0,0,0,0,0,0,0,0,0,0,0,0,0,0,0,0,0,0,0,0,0,0,0,0,0,0,0,0,0,0,0,0,0,0,0,0,0,0,0,0,0,0,0,0,0,0,0,0,0,0,0,0,0,0,0,0,0,0,0,0,0,0],"sum_hessian":[2.3483E4,8.0512275E3,1.5431772E4,7.7066177E3,3.446101E2,1.1203197E4,4.228575E3,3.162501E3,4.5441167E3,2.5471123E2,8.989889E1,5.7553076E3,5.447889E3,3.9533926E3,2.7518246E2,3.1046763E3,5.782463E1,4.5008325E3,4.328396E1,5.733135E1,1.9737987E2,8.236568E0,8.1662315E1,9.0167584E2,4.853632E3,5.2335356E3,2.143534E2,3.8552773E3,9.81153E1,1.8682463E1,2.565E2,1.7868313E3,1.317845E3,2.7560822E1,3.0263811E1,1.9918104E3,2.5090225E3,1.8601494E1,2.4682463E1,2.8027243E1,2.9304106E1,1.3806195E2,5.9317917E1,1.75E0,6.4865685E0,2.6919031E1,5.4743286E1,2.682586E2,6.3341724E2,4.291034E3,5.625974E2,4.86481E2,4.7470547E3,3.0040674E1,1.8431271E2,3.2156687E3,6.396086E2,8.06153E1,1.75E1,2.121642E0,1.6560822E1,8.493284E0,1.778338E3,1.200763E3,1.1708211E2,2.6E1,1.560821E0,2.420299E1,6.060821E0,1.7788558E3,2.129545E2,6.212202E1,2.4469004E3,3.25E0,1.5351495E1,2.3060822E1,1.6216421E0,3.75E0,2.4277243E1,5.243284E0,2.4060822E1,1.26210464E2,1.1851495E1,1.4621642E1,4.4696274E1,1.7243284E1,9.675747E0,3.9E1,1.5743284E1,1.9504852E2,7.321008E1,1.2493284E1,6.2092395E2,4.047344E3,2.4369032E2,3.1332614E2,2.4927129E2,4.4446274E1,4.4203473E2,2.0148884E1,4.726906E3,5.1149263E0,2.4925747E1,1.5421794E2,3.009478E1,1.5303403E3,1.6853284E3,3.6290672E1,6.0331793E2,2.6709705E1,5.39056E1,1.5E1,1.560821E0],"tree_param":{"num_deleted":"0","num_feature":"31","num_nodes":"113","size_leaf_vector":"1"}},{"base_weights":[-4.536365E-5,1.0023434E0,-5.221207E-1,1.0539151E0,-1.4974283E-1,-2.3036487E-1,-1.2984319E0,1.3338195E0,8.59508E-1,1.7028613E-1,-1.0518892E0,5.1685877E-2,-5.2863276E-1,-1.2081494E0,-1.481656E0,1.3640082E0,-2.8545398E-1,8.732719E-1,-7.334006E-1,6.0399395E-1,-1.2597926E-1,9.3391716E-1,-1.2609318E0,2.2921617E-1,-7.2693236E-2,-5.8755773E-1,9.1093904E-1,-1.3356098E0,-9.620363E-1,-1.406748E0,-1.7807022E0,1.469358E0,1.1938957E0,-1.655784E0,9.728522E-1,1.0309452E0,7.315773E-1,-1.257168E0,6.0356766E-1,3.3063722E-1,1.1821237E0,5.554132E-2,-1.8290517E-1,-1.1949158E-1,1.5934023E-1,-5.899666E-1,-1.5759695E0,4.5215952E-1,1.4634195E-1,1.5016486E-1,-2.6961243E-1,-1.0561216E0,-5.375782E-1,-5.1970565E-1,1.1460427E0,-3.2620978E-1,-1.3737519E0,-1.5761154E0,-8.448896E-1,-1.4462672E0,-1.4687145E-1,-1.2783798E0,-1.8122314E-1,-6.9356255E-2,1.4787625E-1,1.2335401E-1,4.87478E-2,-1.756627E-1,4.4606235E-3,1.5317379E-1,-1.15352415E-1,1.0912422E-1,6.497155E-2,-7.6160185E-2,7.4178755E-2,6.9777556E-2,-1.4395146E-1,-1.2866235E-1,1.11984454E-1,5.1484264E-2,-8.701434E-2,-1.1841728E-1,1.3522226E-1,-6.537603E-2,3.1192327E-2,-1.07143246E-1,2.855484E-2,-1.721755E-1,-8.235926E-2,6.0756295E-3,5.711284E-2,-7.878942E-3,2.743313E-2,-1.4269173E-2,2.6769584E-2,-3.4547526E-2,1.3036947E-2,2.4298856E-2,-1.1920476E-1,-5.5363934E-2,6.4605564E-2,1.3899776E-1,-9.490752E-2,1.3801228E-1,-5.2588745E-3,6.1492145E-2,-1.5903282E-1,-1.3962914E-1,2.2400857E-3,-7.2987163E-3,-1.6304599E-1,-6.930772E-2,-1.5633534E-1,-1.4739884E-1,6.446297E-3,1.4480613E-1,-1.747266E-1,6.703903E-2,-1.5537511E-1],"categories":[],"categories_nodes":[],"categories_segments":[],"categories_sizes":[],"default_left":[0,0,0,0,0,0,0,0,0,0,0,0,0,0,0,0,0,0,0,0,0,0,0,0,0,0,0,0,0,0,0,0,0,0,0,0,0,0,0,0,0,0,0,0,0,0,0,0,0,0,0,0,0,0,0,0,0,0,0,0,0,0,0,0,0,0,0,0,0,0,0,0,0,0,0,0,0,0,0,0,0,0,0,0,0,0,0,0,0,0,0,0,0,0,0,0,0,0,0,0,0,0,0,0,0,0,0,0,0,0,0,0,0,0,0,0,0,0,0],"id":1,"left_children":[1,3,5,7,9,11,13,15,17,19,21,23,25,27,29,31,33,35,37,39,41,43,45,47,49,51,53,55,57,59,61,63,65,67,69,71,73,75,77,79,81,83,-1,-1,-1,85,87,89,91,93,95,97,99,101,103,105,107,109,111,113,115,117,-1,-1,-1,-1,-1,-1,-1,-1,-1,-1,-1,-1,-1,-1,-1,-1,-1,-1,-1,-1,-1,-1,-1,-1,-1,-1,-1,-1,-1,-1,-1,-1,-1,-1,-1,-1,-1,-1,-1,-1,-1,-1,-1,-1,-1,-1,-1,-1,-1,-1,-1,-1,-1,-1,-1,-1,-1],"loss_changes":[1.2257801E4,4.7676074E2,3.4880312E3,4.166543E2,9.965996E1,9.418744E2,6.7799805E1,1.5413818E2,1.0004297E2,3.286764E1,3.8689667E1,1.270961E2,4.621156E2,8.729199E1,2.850293E1,5.3583008E1,1.02293465E2,9.967993E1,2.8337446E1,1.6005066E1,4.7231487E1,1.4793566E1,1.6442154E1,4.374495E1,1.4858789E2,1.2186682E2,7.2697174E1,7.1073E1,6.823041E1,5.513965E1,2.0152588E0,3.9726074E1,3.262036E1,4.934662E0,3.868984E1,4.8145264E1,3.6714966E1,1.1207539E1,1.291836E1,1.6336033E1,1.4851109E1,2.5434093E1,0E0,0E0,0E0,1.2048456E1,4.650528E0,2.9864609E1,4.987372E1,5.47147E1,5.4584885E1,8.908777E1,9.0205444E1,2.6691576E1,5.181671E1,8.300883E1,5.6351074E1,1.2441193E1,8.772479E1,4.523242E1,9.167552E1,1.1532112E1,0E0,0E0,0E0,0E0,0E0,0E0,0E0,0E0,0E0,0E0,0E0,0E0,0E0,0E0,0E0,0E0,0E0,0E0,0E0,0E0,0E0,0E0,0E0,0E0,0E0,0E0,0E0,0E0,0E0,0E0,0E0,0E0,0E0,0E0,0E0,0E0,0E0,0E0,0E0,0E0,0E0,0E0,0E0,0E0,0E0,0E0,0E0,0E0,0E0,0E0,0E0,0E0,0E0,0E0,0E0,0E0,0E0],"parents":[2147483647,0,0,1,1,2,2,3,3,4,4,5,5,6,6,7,7,8,8,9,9,10,10,11,11,12,12,13,13,14,14,15,15,16,16,17,17,18,18,19,19,20,20,21,21,22,22,23,23,24,24,25,25,26,26,27,27,28,28,29,29,30,30,31,31,32,32,33,33,34,34,35,35,36,36,37,37,38,38,39,39,40,40,41,41,45,45,46,46,47,47,48,48,49,49,50,50,51,51,52,52,53,53,54,54,55,55,56,56,57,57,58,58,59,59,60,60,61,61],"right_children":[2,4,6,8,10,12,14,16,18,20,22,24,26,28,30,32,34,36,38,40,42,44,46,48,50,52,54,56,58,60,62,64,66,68,70,72,74,76,78,80,82,84,-1,-1,-1,86,88,90,92,94,96,98,100,102,104,106,108,110,112,114,116,118,-1,-1,-1,-1,-1,-1,-1,-1,-1,-1,-1,-1,-1,-1,-1,-1,-1,-1,-1,-1,-1,-1,-1,-1,-1,-1,-1,-1,-1,-1,-1,-1,-1,-1,-1,-1,-1,-1,-1,-1,-1,-1,-1,-1,-1,-1,-1,-1,-1,-1,-1,-1,-1,-1,-1,-1,-1],"split_conditions":[-5.431883E4,1.5E1,2E1,-1.9266697E5,1.9E1,3.744305E4,-3.6020156E-2,-3.1248355E-2,-2.8086977E-2,-6.224621E-2,-4.8430297E-1,-7.177603E-3,7.122403E-2,-4.4760823E-2,-1.6061531E-2,-6.145915E-3,6.292693E5,-3.286617E-2,5.115958E4,-9.535259E4,-1.8065794E8,2.6E1,2E1,-4.185638E-2,-1.01968914E5,-9.707113E-3,-4.253267E-2,-7.913024E-2,4.46127E-3,-1.7852029E-2,2.2E1,-1.374947E0,-4.8122812E-2,3.105631E5,4.695288E7,-4.414821E-2,-9.09507E-2,-9.4516555E4,-3.0847259E-2,-7.5941625E4,-5.4577805E-2,-2.7363108E-2,-1.8290517E-1,-1.1949158E-1,1.5934023E-1,2.60192E3,-8.854929E4,-5.7549037E-2,-2.873573E-2,-2.2094539E5,4.9055094E4,4.14507E4,3.9392344E5,-3.3152338E-2,3.1098335E0,-1.0798795E5,3.9157025E5,-7.181792E-2,2.7929184E5,5.7249114E-2,1.9528119E5,-7.143416E-2,-1.8122314E-1,-6.9356255E-2,1.4787625E-1,1.2335401E-1,4.87478E-2,-1.756627E-1,4.4606235E-3,1.5317379E-1,-1.15352415E-1,1.0912422E-1,6.497155E-2,-7.6160185E-2,7.4178755E-2,6.9777556E-2,-1.4395146E-1,-1.2866235E-1,1.11984454E-1,5.1484264E-2,-8.701434E-2,-1.1841728E-1,1.3522226E-1,-6.537603E-2,3.1192327E-2,-1.07143246E-1,2.855484E-2,-1.721755E-1,-8.235926E-2,6.0756295E-3,5.711284E-2,-7.878942E-3,2.743313E-2,-1.4269173E-2,2.6769584E-2,-3.4547526E-2,1.3036947E-2,2.4298856E-2,-1.1920476E-1,-5.5363934E-2,6.4605564E-2,1.3899776E-1,-9.490752E-2,1.3801228E-1,-5.2588745E-3,6.1492145E-2,-1.5903282E-1,-1.3962914E-1,2.2400857E-3,-7.2987163E-3,-1.6304599E-1,-6.930772E-2,-1.5633534E-1,-1.4739884E-1,6.446297E-3,1.4480613E-1,-1.747266E-1,6.703903E-2,-1.5537511E-1],"split_indices":[9,30,30,9,30,9,29,29,27,29,29,24,23,29,29,24,18,26,20,9,25,30,30,26,19,22,17,29,22,29,30,23,27,21,18,29,29,18,15,18,1,23,0,0,0,14,19,29,26,19,21,20,12,26,7,19,9,17,18,23,12,17,0,0,0,0,0,0,0,0,0,0,0,0,0,0,0,0,0,0,0,0,0,0,0,0,0,0,0,0,0,0,0,0,0,0,0,0,0,0,0,0,0,0,0,0,0,0,0,0,0,0,0,0,0,0,0,0,0],"split_type":[0,0,0,0,0,0,0,0,0,0,0,0,0,0,0,0,0,0,0,0,0,0,0,0,0,0,0,0,0,0,0,0,0,0,0,0,0,0,0,0,0,0,0,0,0,0,0,0,0,0,0,0,0,0,0,0,0,0,0,0,0,0,0,0,0,0,0,0,0,0,0,0,0,0,0,0,0,0,0,0,0,0,0,0,0,0,0,0,0,0,0,0,0,0,0,0,0,0,0,0,0,0,0,0,0,0,0,0,0,0,0,0,0,0,0,0,0,0,0],"sum_hessian":[2.3421035E4,8.0205664E3,1.540047E4,7.6769995E3,3.4356656E2,1.1194581E4,4.205888E3,3.1441875E3,4.5328125E3,2.5420181E2,8.9364746E1,5.754133E3,5.440448E3,2.8226448E3,1.3832435E3,3.0867969E3,5.7390617E1,4.4944287E3,3.8383434E1,1.0274825E2,1.5145357E2,8.181049E0,8.118369E1,2.3702112E3,3.3839216E3,5.2270835E3,2.1336478E2,1.8566643E3,9.6598047E2,1.1107233E3,2.725203E2,1.9015431E3,1.1852538E3,2.7321198E1,3.006942E1,2.1243E3,2.370129E3,2.7621994E1,1.0761438E1,7.0829765E1,3.1918488E1,1.3774004E2,1.3713523E1,1.7429323E0,6.438117E0,2.6856838E1,5.432686E1,6.411016E2,1.7291096E3,1.5875225E3,1.7963992E3,5.0186954E2,4.725214E3,2.9943445E1,1.8342133E2,6.7950836E1,1.7887134E3,1.5276062E2,8.1321985E2,1.0767988E3,3.392443E1,1.854865E1,2.5397163E2,7.9172654E0,1.8936257E3,1.1215651E3,6.3688713E1,2.5760386E1,1.5608122E0,2.4032494E1,6.036927E0,1.8325873E3,2.917128E2,1.5597025E1,2.3545317E3,2.115456E0,2.5506538E1,1.988614E0,8.772824E0,6.190456E1,8.925208E0,1.7407486E0,3.0177738E1,3.615748E1,1.01582565E2,1.7183475E1,9.673364E0,4.442949E1,9.897368E0,1.4979436E2,4.9130728E2,6.2685876E2,1.1022509E3,4.5458957E2,1.132933E3,1.5101179E3,2.8628122E2,4.7462242E1,4.5440732E2,4.6624795E3,6.2734604E1,5.0859036E0,2.4857542E1,1.5332681E2,3.0094522E1,3.924594E1,2.8704891E1,1.760295E3,2.8418388E1,5.4119844E0,1.4734863E2,6.729824E2,1.4023743E2,1.05742E3,1.9378847E1,1.7038883E1,1.6885548E1,2.1189053E0,1.6429745E1],"tree_param":{"num_deleted":"0","num_feature":"31","num_nodes":"119","size_leaf_vector":"1"}},{"base_weights":[-1.04614905E-4,9.1145337E-1,-4.7270957E-1,9.664505E-1,1.0193768E-2,-2.0774199E-1,-1.186448E0,1.2285625E0,7.8438115E-1,2.4491853E-1,-9.6560615E-1,4.331604E-2,-4.809874E-1,-1.1545124E0,-1.6468992E0,1.2553022E0,-2.303437E-1,7.975291E-1,-5.775612E-1,3.4796914E-1,-7.283632E-1,8.5951316E-1,-1.1573668E0,3.5736218E-1,-1.4549583E-2,-5.3824985E-1,7.558038E-1,-2.974235E-1,-1.169604E0,-1.1752498E0,-1.6767797E-1,-2.1351598E-1,1.2645674E0,-1.5273371E0,9.406824E-1,9.473308E-1,6.7484546E-1,3.6499956E-1,-1.3058119E0,1.0203094E0,2.3543844E-1,-2.4331142E-1,-1.7152594E-1,-1.12729825E-1,1.4821626E-1,-5.3720266E-1,-1.4525956E0,3.9279827E-1,-3.453442E-1,3.0245075E-2,-3.5325968E-1,-1.0280532E0,-4.9661312E-1,-4.740206E-1,9.956892E-1,5.541593E-1,-1.4620402E0,-1.1194888E0,-1.4003595E0,6.264164E-2,-1.4340479E0,6.533728E-2,-1.8185467E-1,1.3746049E-1,1.1373649E-1,-1.6342346E-1,-7.8039494E-4,1.448866E-1,-1.0381973E-1,9.9700406E-2,4.9260825E-2,7.580387E-2,4.9332142E-2,-1.3839775E-1,7.950389E-2,-1.5230612E-1,1.101373E-1,-1.2390778E-1,1.11978054E-1,3.192346E-2,-7.878282E-2,8.307621E-2,-9.812215E-2,-9.7903475E-2,2.5983015E-2,-1.6502143E-1,-9.0172164E-2,5.2817445E-2,2.1668904E-2,-1.6350453E-1,2.055247E-2,8.364293E-3,-2.7968237E-2,-1.287431E-2,-6.323331E-2,4.4012886E-2,-1.1784158E-1,-5.139866E-2,4.4785596E-2,1.3974242E-1,-8.93991E-2,1.1820549E-1,-4.7500143E-3,1.1691208E-1,-5.4875202E-2,9.406548E-2,-1.6801621E-1,-1.2193137E-1,-9.327801E-2,-1.4988515E-1,-4.160857E-2,-1.5999012E-1,1.3961469E-2],"categories":[],"categories_nodes":[],"categories_segments":[],"categories_sizes":[],"default_left":[0,0,0,0,0,0,0,0,0,0,0,0,0,0,0,0,0,0,0,0,0,0,0,0,0,0,0,0,0,0,0,0,0,0,0,0,0,0,0,0,0,0,0,0,0,0,0,0,0,0,0,0,0,0,0,0,0,0,0,0,0,0,0,0,0,0,0,0,0,0,0,0,0,0,0,0,0,0,0,0,0,0,0,0,0,0,0,0,0,0,0,0,0,0,0,0,0,0,0,0,0,0,0,0,0,0,0,0,0,0,0,0,0],"id":2,"left_children":[1,3,5,7,9,11,13,15,17,19,21,23,25,27,29,31,33,35,37,39,41,43,45,47,49,51,53,55,57,59,-1,61,63,65,67,69,71,73,75,77,79,81,-1,-1,-1,83,85,87,89,91,93,95,97,99,101,103,105,107,109,-1,111,-1,-1,-1,-1,-1,-1,-1,-1,-1,-1,-1,-1,-1,-1,-1,-1,-1,-1,-1,-1,-1,-1,-1,-1,-1,-1,-1,-1,-1,-1,-1,-1,-1,-1,-1,-1,-1,-1,-1,-1,-1,-1,-1,-1,-1,-1,-1,-1,-1,-1,-1,-1],"loss_changes":[1.002245E4,3.9371387E2,2.8972312E3,3.5631006E2,1.0510546E2,7.665865E2,5.9089844E1,1.1993164E2,7.961792E1,3.7350647E1,3.213714E1,1.05851326E2,3.7936096E2,4.9865234E1,1.7875366E0,4.1259277E1,8.65597E1,7.9833496E1,2.9887753E1,2.5115868E1,1.668921E1,1.2846725E1,1.4040421E1,2.2702965E1,7.464758E1,1.0379639E2,7.044771E1,6.875902E1,4.2544434E1,9.865141E0,0E0,2.8647331E1,4.0331543E1,4.368698E0,3.1745617E1,4.398352E1,3.6031616E1,1.5734605E1,1.4432411E1,1.2119041E1,2.4979445E1,2.07285E1,0E0,0E0,0E0,1.0006886E1,4.4182205E0,2.0465973E1,3.1624409E1,7.194056E1,3.592511E1,8.877423E1,7.7611084E1,3.2209396E1,3.8705856E1,2.7975084E1,1.689022E1,5.7365723E1,6.4970825E1,0E0,4.6915436E0,0E0,0E0,0E0,0E0,0E0,0E0,0E0,0E0,0E0,0E0,0E0,0E0,0E0,0E0,0E0,0E0,0E0,0E0,0E0,0E0,0E0,0E0,0E0,0E0,0E0,0E0,0E0,0E0,0E0,0E0,0E0,0E0,0E0,0E0,0E0,0E0,0E0,0E0,0E0,0E0,0E0,0E0,0E0,0E0,0E0,0E0,0E0,0E0,0E0,0E0,0E0,0E0],"parents":[2147483647,0,0,1,1,2,2,3,3,4,4,5,5,6,6,7,7,8,8,9,9,10,10,11,11,12,12,13,13,14,14,15,15,16,16,17,17,18,18,19,19,20,20,21,21,22,22,23,23,24,24,25,25,26,26,27,27,28,28,29,29,31,31,32,32,33,33,34,34,35,35,36,36,37,37,38,38,39,39,40,40,41,41,45,45,46,46,47,47,48,48,49,49,50,50,51,51,52,52,53,53,54,54,55,55,56,56,57,57,58,58,60,60],"right_children":[2,4,6,8,10,12,14,16,18,20,22,24,26,28,30,32,34,36,38,40,42,44,46,48,50,52,54,56,58,60,-1,62,64,66,68,70,72,74,76,78,80,82,-1,-1,-1,84,86,88,90,92,94,96,98,100,102,104,106,108,110,-1,112,-1,-1,-1,-1,-1,-1,-1,-1,-1,-1,-1,-1,-1,-1,-1,-1,-1,-1,-1,-1,-1,-1,-1,-1,-1,-1,-1,-1,-1,-1,-1,-1,-1,-1,-1,-1,-1,-1,-1,-1,-1,-1,-1,-1,-1,-1,-1,-1,-1,-1,-1,-1],"split_conditions":[-5.431883E4,1.4E1,2E1,-1.9266697E5,1.9E1,3.959987E4,-1.6061531E-2,-3.1248355E-2,-2.820491E-2,-3.9693225E-2,-4.8430297E-1,-3.7506584E-2,5.7249114E-2,-7.913024E-2,2.2E1,-1.5424443E0,6.292693E5,-3.5311267E-2,-8.567186E4,-7.819261E-2,-4.877122E4,2.6E1,2E1,2.0856631E9,1.5E1,-1.0958526E-2,-4.253267E-2,-1.0798795E5,2.86016E5,-7.143416E-2,-1.6767797E-1,5E0,-4.9099237E-2,-2.2734228E5,4.695288E7,-3.958347E-2,-1.0061808E-2,-1.1203949E5,-2.986325E-2,-1.5424443E0,-4.1836808E-3,7.7726236E-3,-1.7152594E-1,-1.12729825E-1,1.4821626E-1,2.60192E3,-6.809268E4,8.048545E4,-4.085623E-2,-3.9484534E-2,-2.162457E4,9.2858125E4,-1.6458445E-3,-3.3152338E-2,3.1098335E0,5.90142E9,-7.139921E-2,1.6062409E-2,1.5425567E-2,6.264164E-2,6.7488635E-3,6.533728E-2,-1.8185467E-1,1.3746049E-1,1.1373649E-1,-1.6342346E-1,-7.8039494E-4,1.448866E-1,-1.0381973E-1,9.9700406E-2,4.9260825E-2,7.580387E-2,4.9332142E-2,-1.3839775E-1,7.950389E-2,-1.5230612E-1,1.101373E-1,-1.2390778E-1,1.11978054E-1,3.192346E-2,-7.878282E-2,8.307621E-2,-9.812215E-2,-9.7903475E-2,2.5983015E-2,-1.6502143E-1,-9.0172164E-2,5.2817445E-2,2.1668904E-2,-1.6350453E-1,2.055247E-2,8.364293E-3,-2.7968237E-2,-1.287431E-2,-6.323331E-2,4.4012886E-2,-1.1784158E-1,-5.139866E-2,4.4785596E-2,1.3974242E-1,-8.93991E-2,1.1820549E-1,-4.7500143E-3,1.1691208E-1,-5.4875202E-2,9.406548E-2,-1.6801621E-1,-1.2193137E-1,-9.327801E-2,-1.4988515E-1,-4.160857E-2,-1.5999012E-1,1.3961469E-2],"split_indices":[9,30,30,9,30,9,29,29,27,29,29,26,23,29,30,22,18,26,9,29,18,30,30,25,30,22,17,19,18,17,0,30,26,19,18,7,23,9,1,22,23,24,0,0,0,14,12,12,29,29,21,21,27,26,7,25,17,23,26,0,15,0,0,0,0,0,0,0,0,0,0,0,0,0,0,0,0,0,0,0,0,0,0,0,0,0,0,0,0,0,0,0,0,0,0,0,0,0,0,0,0,0,0,0,0,0,0,0,0,0,0,0,0],"split_type":[0,0,0,0,0,0,0,0,0,0,0,0,0,0,0,0,0,0,0,0,0,0,0,0,0,0,0,0,0,0,0,0,0,0,0,0,0,0,0,0,0,0,0,0,0,0,0,0,0,0,0,0,0,0,0,0,0,0,0,0,0,0,0,0,0,0,0,0,0,0,0,0,0,0,0,0,0,0,0,0,0,0,0,0,0,0,0,0,0,0,0,0,0,0,0,0,0,0,0,0,0,0,0,0,0,0,0,0,0,0,0,0,0],"sum_hessian":[2.326237E4,7.942325E3,1.5320044E4,7.4854707E3,4.5685428E2,1.1173351E4,4.146694E3,3.0659287E3,4.419542E3,3.688725E2,8.79818E1,5.82353E3,5.349821E3,3.8810247E3,2.6566904E2,3.010883E3,5.5045708E1,4.3776953E3,4.1847103E1,3.3413675E2,3.473576E1,8.034035E0,7.994776E1,9.052757E2,4.918254E3,5.113629E3,2.3619223E2,6.751285E1,3.8135117E3,1.8231077E1,2.4743796E2,1.8735142E1,2.9921477E3,2.597372E1,2.9071985E1,1.9679849E3,2.4097102E3,1.8457157E1,2.3389944E1,4.675018E1,2.8738657E2,2.4125034E1,1.0610726E1,1.7236274E0,6.3104076E0,2.6693806E1,5.3253952E1,8.622359E2,4.303982E1,4.3445894E3,5.736644E2,3.9878134E2,4.714847E3,3.8391884E1,1.9780034E2,3.9300198E1,2.8212646E1,3.1378823E3,6.756295E2,2.1114414E0,1.6119637E1,1.2549817E1,6.185325E0,1.5990612E3,1.3930867E3,2.4196068E1,1.7776526E0,2.3344793E1,5.7271924E0,1.7731011E3,1.9488377E2,1.6502283E3,7.59482E2,3.2048237E0,1.5252335E1,2.1790617E1,1.5993273E0,1.4882971E0,4.5261883E1,2.6626953E2,2.1117012E1,9.773407E0,1.4351626E1,1.7026747E1,9.66706E0,3.7724987E1,1.5528963E1,4.8636505E2,3.7587082E2,1.2292453E1,3.0747368E1,3.7066887E3,6.3790076E2,3.1871625E2,2.549482E2,3.68677E1,3.6191364E2,4.630132E3,8.4715355E1,6.6098895E0,3.1781994E1,1.6770648E2,3.0093855E1,2.5193031E1,1.4107166E1,2.0723553E0,2.6140291E1,2.0410779E3,1.0968043E3,6.1369684E2,6.1932674E1,1.4567635E1,1.5520015E0],"tree_param":{"num_deleted":"0","num_feature":"31","num_nodes":"113","size_leaf_vector":"1"}},{"base_weights":[-1.4986777E-4,8.326345E-1,-4.290176E-1,1.0884774E0,6.6371346E-1,-1.8752839E-1,-1.0910578E0,1.1246973E0,-4.2645314E-1,6.970931E-1,-4.479741E-1,4.2101566E-2,-4.3218434E-1,-1.0580331E0,-1.5117378E0,1.1643459E0,2.8744486E-1,-1.1374917E0,3.752782E-1,8.480662E-1,5.835414E-1,-1.118788E-1,-1.2742213E0,1.9452482E-1,-6.462792E-2,-4.8031718E-1,7.684465E-1,5.7799052E-2,-1.0706271E0,-1.599239E-1,-1.1467638E0,1.1820545E0,4.6582288E-1,4.7957742E-1,-5.590711E-1,-1.4162793E0,8.5781276E-1,1.2294956E0,-9.1303164E-1,9.3240947E-1,4.9418455E-1,7.875226E-1,4.8907492E-1,-1.6754273E-1,8.824048E-2,-1.5265903E-1,-7.7286106E-1,-7.242031E-2,2.5202593E-1,1.2960401E-1,-2.3633854E-1,-8.8437843E-1,-4.3799284E-1,-4.2671883E-1,9.663795E-1,7.0772564E-1,-1.5168048E-1,-1.080661E0,-2.7339098E-1,9.833299E-1,-1.4795699E0,1.040079E-1,1.2829219E-1,-1.2546693E-2,1.1072034E-1,5.5265483E-2,-1.4429115E-1,1.790946E-2,-1.8698359E-1,-1.5514931E-1,-6.052207E-2,-9.032448E-2,1.563817E-1,1.5252642E-1,-1.1759619E-1,-1.039069E-2,-1.4889458E-1,9.768306E-2,5.4444253E-2,5.5963535E-2,-1.5989047E-1,-2.246221E-2,8.616445E-2,5.173062E-2,-3.8385946E-2,-1.6089217E-1,2.2330327E-2,1.0527178E-1,-1.3214819E-1,-4.2687204E-2,2.9021665E-2,3.165662E-2,-3.145322E-3,-3.3628564E-2,1.9636218E-2,1.123062E-2,-3.1930916E-2,-2.2129003E-2,-1.12847865E-1,1.4901704E-1,-4.4699393E-2,1.2003683E-1,-7.86787E-2,1.1705454E-1,-4.290407E-3,-1.8799203E-2,1.6934916E-1,-1.0348103E-1,-1.3582863E-1,-1.5305017E-1,2.1103827E-2,1.5152442E-1,-1.0128983E-1,1.1198602E-1,-1.5834656E-1],"categories":[],"categories_nodes":[],"categories_segments":[],"categories_sizes":[],"default_left":[0,0,0,0,0,0,0,0,0,0,0,0,0,0,0,0,0,0,0,0,0,0,0,0,0,0,0,0,0,0,0,0,0,0,0,0,0,0,0,0,0,0,0,0,0,0,0,0,0,0,0,0,0,0,0,0,0,0,0,0,0,0,0,0,0,0,0,0,0,0,0,0,0,0,0,0,0,0,0,0,0,0,0,0,0,0,0,0,0,0,0,0,0,0,0,0,0,0,0,0,0,0,0,0,0,0,0,0,0,0,0,0,0,0,0],"id":3,"left_children":[1,3,5,7,9,11,13,15,17,19,21,23,25,27,29,31,33,35,37,39,41,43,45,47,49,51,53,55,57,-1,59,61,63,65,67,69,71,73,75,77,79,81,83,-1,85,-1,87,89,91,93,95,97,99,101,103,105,-1,107,109,111,113,-1,-1,-1,-1,-1,-1,-1,-1,-1,-1,-1,-1,-1,-1,-1,-1,-1,-1,-1,-1,-1,-1,-1,-1,-1,-1,-1,-1,-1,-1,-1,-1,-1,-1,-1,-1,-1,-1,-1,-1,-1,-1,-1,-1,-1,-1,-1,-1,-1,-1,-1,-1,-1,-1],"loss_changes":[8.228821E3,3.3774902E2,2.4311968E3,1.7129395E2,1.7545508E2,6.261245E2,5.4868164E1,1.0060132E2,4.227827E1,7.806641E1,3.8234154E1,9.354966E1,3.1219342E2,5.3069336E1,7.539734E0,3.5356934E1,2.2844181E1,2.2996346E1,3.992499E1,5.81886E1,5.0075012E1,3.1228563E1,3.8640137E0,3.63696E1,1.1284326E2,8.834412E1,4.970352E1,4.5126526E1,2.9541992E1,0E0,4.419928E1,3.9198486E1,2.7983555E1,1.6766773E1,2.562572E1,2.8700943E0,8.155127E0,1.7180744E1,6.6633615E0,2.6795288E1,5.299607E1,6.225476E1,4.43714E1,0E0,2.0762764E1,0E0,1.6787775E1,5.4172935E1,3.5663544E1,4.9450264E1,5.1980507E1,7.921832E1,8.221118E1,1.8695057E1,3.6948715E1,2.78245E1,0E0,4.5479492E1,2.9371616E1,1.0824051E1,1.5964775E1,0E0,0E0,0E0,0E0,0E0,0E0,0E0,0E0,0E0,0E0,0E0,0E0,0E0,0E0,0E0,0E0,0E0,0E0,0E0,0E0,0E0,0E0,0E0,0E0,0E0,0E0,0E0,0E0,0E0,0E0,0E0,0E0,0E0,0E0,0E0,0E0,0E0,0E0,0E0,0E0,0E0,0E0,0E0,0E0,0E0,0E0,0E0,0E0,0E0,0E0,0E0,0E0,0E0,0E0],"parents":[2147483647,0,0,1,1,2,2,3,3,4,4,5,5,6,6,7,7,8,8,9,9,10,10,11,11,12,12,13,13,14,14,15,15,16,16,17,17,18,18,19,19,20,20,21,21,22,22,23,23,24,24,25,25,26,26,27,27,28,28,30,30,31,31,32,32,33,33,34,34,35,35,36,36,37,37,38,38,39,39,40,40,41,41,42,42,44,44,46,46,47,47,48,48,49,49,50,50,51,51,52,52,53,53,54,54,55,55,57,57,58,58,59,59,60,60],"right_children":[2,4,6,8,10,12,14,16,18,20,22,24,26,28,30,32,34,36,38,40,42,44,46,48,50,52,54,56,58,-1,60,62,64,66,68,70,72,74,76,78,80,82,84,-1,86,-1,88,90,92,94,96,98,100,102,104,106,-1,108,110,112,114,-1,-1,-1,-1,-1,-1,-1,-1,-1,-1,-1,-1,-1,-1,-1,-1,-1,-1,-1,-1,-1,-1,-1,-1,-1,-1,-1,-1,-1,-1,-1,-1,-1,-1,-1,-1,-1,-1,-1,-1,-1,-1,-1,-1,-1,-1,-1,-1,-1,-1,-1,-1,-1,-1],"split_conditions":[-5.431883E4,-1.9266697E5,2E1,-3.1248355E-2,1.7E1,3.744305E4,2.5752205E5,1.3E1,1.1395962E6,-3.5311267E-2,2E1,-7.177603E-3,7.122403E-2,-8.544382E-2,4.567255E-2,-4.361401E-2,-8.253938E-3,9.47498E5,8.645073E-1,-4.705771E-2,-6.317945E-2,-2.4863126E-2,-6.809268E4,-6.274191E-2,-1.01968914E5,-9.707113E-3,-4.253267E-2,-1.0798795E5,3.9157025E5,-1.599239E-1,4.5917856E5,5.857457E8,-5.1630042E-2,1.3933251E0,-7.042668E-2,3.105631E5,1.6E1,1.4E1,4.695288E7,-4.004732E-2,-2.7656294E-2,-7.375656E-2,-3.18894E-2,-1.6754273E-1,-1.0866589E-2,-1.5265903E-1,-6.116038E4,2.0156287E4,-3.855725E-2,-1.5944173E5,-3.71287E3,-1.2083351E8,-5.065835E-2,-3.3152338E-2,3.1098335E0,-4.6406657E-2,-1.5168048E-1,2.86016E5,1.5425567E-2,-8.655032E-3,-7.143416E-2,1.040079E-1,1.2829219E-1,-1.2546693E-2,1.1072034E-1,5.5265483E-2,-1.4429115E-1,1.790946E-2,-1.8698359E-1,-1.5514931E-1,-6.052207E-2,-9.032448E-2,1.563817E-1,1.5252642E-1,-1.1759619E-1,-1.039069E-2,-1.4889458E-1,9.768306E-2,5.4444253E-2,5.5963535E-2,-1.5989047E-1,-2.246221E-2,8.616445E-2,5.173062E-2,-3.8385946E-2,-1.6089217E-1,2.2330327E-2,1.0527178E-1,-1.3214819E-1,-4.2687204E-2,2.9021665E-2,3.165662E-2,-3.145322E-3,-3.3628564E-2,1.9636218E-2,1.123062E-2,-3.1930916E-2,-2.2129003E-2,-1.12847865E-1,1.4901704E-1,-4.4699393E-2,1.2003683E-1,-7.86787E-2,1.1705454E-1,-4.290407E-3,-1.8799203E-2,1.6934916E-1,-1.0348103E-1,-1.3582863E-1,-1.5305017E-1,2.1103827E-2,1.5152442E-1,-1.0128983E-1,1.1198602E-1,-1.5834656E-1],"split_indices":[9,9,30,29,30,9,21,30,18,26,30,24,23,29,22,27,22,14,29,29,29,23,12,29,19,22,17,19,9,0,20,25,29,24,29,21,30,30,18,1,27,27,27,0,26,0,18,20,29,13,14,25,26,26,7,27,0,18,26,24,17,0,0,0,0,0,0,0,0,0,0,0,0,0,0,0,0,0,0,0,0,0,0,0,0,0,0,0,0,0,0,0,0,0,0,0,0,0,0,0,0,0,0,0,0,0,0,0,0,0,0,0,0,0,0],"split_type":[0,0,0,0,0,0,0,0,0,0,0,0,0,0,0,0,0,0,0,0,0,0,0,0,0,0,0,0,0,0,0,0,0,0,0,0,0,0,0,0,0,0,0,0,0,0,0,0,0,0,0,0,0,0,0,0,0,0,0,0,0,0,0,0,0,0,0,0,0,0,0,0,0,0,0,0,0,0,0,0,0,0,0,0,0,0,0,0,0,0,0,0,0,0,0,0,0,0,0,0,0,0,0,0,0,0,0,0,0,0,0,0,0,0,0],"sum_hessian":[2.3037959E4,7.8308696E3,1.5207089E4,3.1120327E3,4.7188374E3,1.1143581E4,4.0635078E3,3.0396172E3,7.241552E1,4.581641E3,1.3719597E2,5.7487393E3,5.394842E3,3.7709888E3,2.92519E2,2.9018098E3,1.3780722E2,3.8156517E1,3.4259007E1,1.9639692E3,2.617672E3,9.833238E1,3.886358E1,2.3672224E3,3.3815168E3,5.187478E3,2.0736406E2,4.204674E1,3.728942E3,2.3322296E2,5.9296047E1,2.829388E3,7.242187E1,1.1266848E2,2.5138739E1,3.3733418E1,4.423101E0,2.0627522E1,1.3631483E1,1.5846526E3,3.7931665E2,8.262395E2,1.7914326E3,1.0321048E1,8.801134E1,2.4490791E1,1.43727865E1,4.1949313E2,1.9477292E3,1.5868186E3,1.7946982E3,4.8996777E2,4.6975103E3,2.929829E1,1.7806578E2,3.0151909E1,1.1894833E1,3.6822417E3,4.670035E1,7.7484136E0,5.1547634E1,1.1799147E3,1.6494734E3,3.8100933E1,3.432094E1,1.0922901E2,3.439467E0,1.6634357E1,8.504381E0,2.8130745E1,5.602673E0,1.1858184E0,3.2372828E0,1.8694777E1,1.9327447E0,6.15895E0,7.4725337E0,1.4204924E3,1.6416008E2,3.6852548E2,1.079115E1,5.624029E1,7.699992E2,1.735706E3,5.57265E1,5.6833615E0,8.232797E1,3.1088853E0,1.1263901E1,2.1205116E2,2.0744197E2,1.5864275E3,3.6130176E2,1.9837415E2,1.3884445E3,3.449319E2,1.4497664E3,1.3235023E2,3.5761755E2,2.1062471E1,4.6764478E3,4.8859196E0,2.441237E1,1.4797289E2,3.0092894E1,1.6221506E1,1.3930403E1,3.1643633E3,5.178784E2,1.2389577E1,3.4310776E1,6.30842E0,1.439993E0,1.6052854E0,4.994235E1],"tree_param":{"num_deleted":"0","num_feature":"31","num_nodes":"115","size_leaf_vector":"1"}},{"base_weights":[-1.7645909E-4,7.6296693E-1,-3.9002293E-1,1.0071332E0,6.042157E-1,-1.6936323E-1,-1.0081577E0,1.0406178E0,-4.0061566E-1,6.407658E-1,-2.6371828E-1,3.2973535E-2,-3.9821908E-1,-9.7737867E-1,-1.4681811E0,1.0784395E0,2.5853294E-1,-1.0646433E0,3.4457114E-1,6.9881254E-1,3.7984574E-1,-2.5980515E-2,-1.1931003E0,3.160028E-1,-1.4999564E-2,-4.4853905E-1,5.941695E-1,-9.2083225E-3,-9.8864764E-1,-1.0234405E0,-1.4971045E-1,-2.590958E-1,1.0871198E0,4.339132E-1,-5.113007E-1,-1.3311698E0,7.8885627E-1,1.1491431E0,-8.476027E-1,7.7423954E-1,3.7977046E-1,4.5651913E-1,-3.27648E-1,-1.467554E0,1.4935003E-1,-1.443892E-1,-7.096458E-1,3.5228783E-1,-3.7122703E-1,6.5046936E-2,-1.5716657E-1,-7.889642E-1,-3.8943276E-1,1.3856335E0,2.8024253E-1,4.45103E-1,-1.0466924E0,-9.9844205E-1,1.0814482E-1,5.4847676E-2,-1.260106E0,4.9281772E-2,-1.7158096E-1,1.2131702E-1,9.760906E-2,6.1279055E-2,-3.721645E-2,1.6262922E-2,-1.709705E-1,-1.4653297E-1,-5.5742264E-2,-8.6432986E-2,1.4473827E-1,1.4334509E-1,-1.11304E-1,-9.491916E-3,-1.3996212E-1,7.803772E-2,-1.9701278E-1,5.0390977E-2,-2.134197E-4,4.9659703E-2,-8.473313E-2,-1.0573443E-1,7.1621016E-3,4.567735E-2,-1.6264108E-1,-1.166829E-1,2.703735E-2,9.62855E-2,-1.2296262E-1,2.8778499E-2,7.250853E-2,-1.508138E-1,1.3722435E-2,9.697328E-3,-5.3845454E-2,-4.4308744E-2,2.9750436E-3,3.7996083E-2,-8.5846655E-2,3.8227346E-2,-4.1567355E-2,1.4915626E-1,-5.646894E-2,-1.06896006E-1,6.689652E-2,7.8791216E-2,-1.4547098E-1,-1.4711492E-1,1.3025054E-1,-9.49408E-2,-1.2308448E-1,1.5425102E-1,-1.4539945E-1,-1.4282647E-1,2.0592801E-2],"categories":[],"categories_nodes":[],"categories_segments":[],"categories_sizes":[],"default_left":[0,0,0,0,0,0,0,0,0,0,0,0,0,0,0,0,0,0,0,0,0,0,0,0,0,0,0,0,0,0,0,0,0,0,0,0,0,0,0,0,0,0,0,0,0,0,0,0,0,0,0,0,0,0,0,0,0,0,0,0,0,0,0,0,0,0,0,0,0,0,0,0,0,0,0,0,0,0,0,0,0,0,0,0,0,0,0,0,0,0,0,0,0,0,0,0,0,0,0,0,0,0,0,0,0,0,0,0,0,0,0,0,0,0,0,0,0],"id":4,"left_children":[1,3,5,7,9,11,13,15,17,19,21,23,25,27,29,31,33,35,37,39,41,43,45,47,49,51,53,55,57,59,-1,61,63,65,67,69,71,73,75,77,79,81,83,85,87,-1,89,91,93,95,97,99,101,103,105,107,109,111,113,-1,115,-1,-1,-1,-1,-1,-1,-1,-1,-1,-1,-1,-1,-1,-1,-1,-1,-1,-1,-1,-1,-1,-1,-1,-1,-1,-1,-1,-1,-1,-1,-1,-1,-1,-1,-1,-1,-1,-1,-1,-1,-1,-1,-1,-1,-1,-1,-1,-1,-1,-1,-1,-1,-1,-1,-1,-1],"loss_changes":[6.7749873E3,2.9784717E2,2.0556992E3,1.433501E2,1.4826904E2,5.14413E2,5.4704834E1,8.733838E1,3.5583946E1,6.7588745E1,4.1808598E1,8.007142E1,2.6057953E2,4.0568848E1,1.640686E0,3.3081787E1,1.8847418E1,1.976278E1,3.3866066E1,8.786951E1,4.449591E1,3.8590134E1,3.6494255E0,2.1443672E1,5.7401566E1,9.953119E1,6.2223E1,2.1111351E1,3.9602295E1,7.470127E0,0E0,2.1682714E1,3.810205E1,1.6506638E1,2.132166E1,2.659584E0,7.118978E0,1.5036501E1,5.8473644E0,5.1431396E1,3.330591E1,3.8984863E1,2.3533457E1,5.803425E0,2.2019878E1,0E0,1.4345364E1,1.9325424E1,2.5266567E1,6.2232986E1,9.711822E1,5.988333E1,8.581244E1,1.5575119E1,9.6001785E1,2.1442383E1,1.5514776E1,4.035742E1,7.717696E1,0E0,4.273287E0,0E0,0E0,0E0,0E0,0E0,0E0,0E0,0E0,0E0,0E0,0E0,0E0,0E0,0E0,0E0,0E0,0E0,0E0,0E0,0E0,0E0,0E0,0E0,0E0,0E0,0E0,0E0,0E0,0E0,0E0,0E0,0E0,0E0,0E0,0E0,0E0,0E0,0E0,0E0,0E0,0E0,0E0,0E0,0E0,0E0,0E0,0E0,0E0,0E0,0E0,0E0,0E0,0E0,0E0,0E0,0E0],"parents":[2147483647,0,0,1,1,2,2,3,3,4,4,5,5,6,6,7,7,8,8,9,9,10,10,11,11,12,12,13,13,14,14,15,15,16,16,17,17,18,18,19,19,20,20,21,21,22,22,23,23,24,24,25,25,26,26,27,27,28,28,29,29,31,31,32,32,33,33,34,34,35,35,36,36,37,37,38,38,39,39,40,40,41,41,42,42,43,43,44,44,46,46,47,47,48,48,49,49,50,50,51,51,52,52,53,53,54,54,55,55,56,56,57,57,58,58,60,60],"right_children":[2,4,6,8,10,12,14,16,18,20,22,24,26,28,30,32,34,36,38,40,42,44,46,48,50,52,54,56,58,60,-1,62,64,66,68,70,72,74,76,78,80,82,84,86,88,-1,90,92,94,96,98,100,102,104,106,108,110,112,114,-1,116,-1,-1,-1,-1,-1,-1,-1,-1,-1,-1,-1,-1,-1,-1,-1,-1,-1,-1,-1,-1,-1,-1,-1,-1,-1,-1,-1,-1,-1,-1,-1,-1,-1,-1,-1,-1,-1,-1,-1,-1,-1,-1,-1,-1,-1,-1,-1,-1,-1,-1,-1,-1,-1,-1,-1,-1],"split_conditions":[-5.431883E4,-1.9266697E5,2E1,-3.1248355E-2,1.6E1,4.221807E4,-1.6061531E-2,1.3E1,1.1395962E6,-3.7496824E-2,2E1,-3.964525E-2,6.292693E5,-3.631946E5,2.2E1,-1.5424443E0,-8.253938E-3,9.47498E5,8.645073E-1,1.4200846E-2,-3.3301227E-2,-2.5459653E-2,-6.809268E4,2.0856631E9,-3.98062E4,-5.6633037E-3,3.105631E5,-6.162847E-2,-1.7852029E-2,-7.143416E-2,-1.4971045E-1,5E0,-2.9348703E5,-4.8122812E-2,-7.042668E-2,3.105631E5,1.6E1,1.4E1,4.695288E7,-2.6275856E-2,-1.0061808E-2,-5.932113E4,-9.144019E4,7.036964E-3,-1.0866589E-2,-1.443892E-1,-6.116038E4,-2.7229493E-2,-4.085623E-2,-3.1530205E-2,1.429313E4,5.227546E4,-7.819261E-2,3.5864406E5,1.473556E-2,2.6E1,3.9157025E5,2.86016E5,1.9528119E5,5.4847676E-2,6.7488635E-3,4.9281772E-2,-1.7158096E-1,1.2131702E-1,9.760906E-2,6.1279055E-2,-3.721645E-2,1.6262922E-2,-1.709705E-1,-1.4653297E-1,-5.5742264E-2,-8.6432986E-2,1.4473827E-1,1.4334509E-1,-1.11304E-1,-9.491916E-3,-1.3996212E-1,7.803772E-2,-1.9701278E-1,5.0390977E-2,-2.134197E-4,4.9659703E-2,-8.473313E-2,-1.0573443E-1,7.1621016E-3,4.567735E-2,-1.6264108E-1,-1.166829E-1,2.703735E-2,9.62855E-2,-1.2296262E-1,2.8778499E-2,7.250853E-2,-1.508138E-1,1.3722435E-2,9.697328E-3,-5.3845454E-2,-4.4308744E-2,2.9750436E-3,3.7996083E-2,-8.5846655E-2,3.8227346E-2,-4.1567355E-2,1.4915626E-1,-5.646894E-2,-1.06896006E-1,6.689652E-2,7.8791216E-2,-1.4547098E-1,-1.4711492E-1,1.3025054E-1,-9.49408E-2,-1.2308448E-1,1.5425102E-1,-1.4539945E-1,-1.4282647E-1,2.0592801E-2],"split_indices":[9,9,30,29,30,9,29,30,18,27,30,26,18,19,30,22,22,14,29,24,29,23,12,25,19,23,21,29,29,17,0,30,9,27,29,21,30,30,18,29,23,13,10,24,26,0,18,27,29,29,16,12,29,19,23,30,9,18,12,0,15,0,0,0,0,0,0,0,0,0,0,0,0,0,0,0,0,0,0,0,0,0,0,0,0,0,0,0,0,0,0,0,0,0,0,0,0,0,0,0,0,0,0,0,0,0,0,0,0,0,0,0,0,0,0,0,0],"split_type":[0,0,0,0,0,0,0,0,0,0,0,0,0,0,0,0,0,0,0,0,0,0,0,0,0,0,0,0,0,0,0,0,0,0,0,0,0,0,0,0,0,0,0,0,0,0,0,0,0,0,0,0,0,0,0,0,0,0,0,0,0,0,0,0,0,0,0,0,0,0,0,0,0,0,0,0,0,0,0,0,0,0,0,0,0,0,0,0,0,0,0,0,0,0,0,0,0,0,0,0,0,0,0,0,0,0,0,0,0,0,0,0,0,0,0,0,0],"sum_hessian":[2.2770395E4,7.6987534E3,1.5071642E4,3.0312373E3,4.6675166E3,1.1107719E4,3.9639224E3,2.9610664E3,7.017088E1,4.4791533E3,1.8836296E2,5.8958857E3,5.211833E3,3.7182668E3,2.4565561E2,2.8241133E3,1.3695317E2,3.6879383E1,3.3291496E1,3.6626482E3,8.1650525E2,1.5081271E2,3.7550236E1,8.536976E2,5.0421885E3,4.9608374E3,2.5099573E2,4.2801575E1,3.6754653E3,1.7222178E1,2.2843343E2,1.8023739E1,2.8060894E3,1.1189751E2,2.5055664E1,3.248934E1,4.390044E0,1.989852E1,1.3392978E1,2.961154E3,7.0149414E2,7.3699E2,7.951526E1,1.5554326E1,1.3525839E2,2.341639E1,1.4133846E1,8.113467E2,4.2350933E1,3.2262212E3,1.815967E3,7.320749E2,4.2287627E3,7.031234E1,1.806834E2,3.0163877E1,1.2637698E1,3.6430227E3,3.244262E1,2.081234E0,1.51409445E1,1.2324092E1,5.699647E0,1.3095005E3,1.4965889E3,9.177208E1,2.0125425E1,1.6590302E1,8.465362E0,2.6926714E1,5.5626264E0,1.1615443E0,3.2285E0,1.8002352E1,1.896167E0,6.16241E0,7.2305684E0,2.9552605E3,5.893613E0,5.291672E2,1.7232692E2,7.1561255E2,2.137744E1,2.7538404E1,5.1976852E1,1.0431111E0,1.4511215E1,1.0662126E1,1.2459627E2,3.1500602E0,1.0983787E1,6.9318164E2,1.1816501E2,1.2479745E1,2.9871187E1,3.0649207E3,1.6130063E2,7.173261E2,1.098641E3,4.0834393E1,6.912405E2,1.3861838E2,4.0901443E3,6.691326E1,3.399077E0,4.002214E1,1.4066125E2,2.6048803E1,4.1150727E0,1.1020298E1,1.6173995E0,3.0125063E3,6.3051624E2,1.6919554E1,1.5523066E1,1.3606051E1,1.5348929E0],"tree_param":{"num_deleted":"0","num_feature":"31","num_nodes":"117","size_leaf_vector":"1"}},{"base_weights":[-2.3335702E-4,7.005252E-1,-3.5493946E-1,9.3537664E-1,5.505578E-1,-1.5301724E-1,-9.3459594E-1,9.6640235E-1,-3.7882915E-1,5.8396876E-1,-2.4301906E-1,4.3199215E-2,-3.4732577E-1,-8.514073E-1,-1.1072038E0,1.0026919E0,2.3351802E-1,-1.0402629E0,2.813738E-1,7.179826E-1,4.8246843E-1,-2.5127353E-2,-1.1246402E0,-2.4247156E-1,8.769865E-2,-3.8740635E-1,5.921585E-1,-9.8530793E-1,-5.9672904E-1,-9.928265E-1,-1.2906799E0,1.1029016E0,8.768053E-1,5.1885116E-1,-1.850822E-1,-1.3181852E0,7.3049355E-1,7.8955454E-1,-1.3909622E-1,7.8280914E-1,3.296511E-1,6.64006E-1,3.9912215E-1,-1.3678325E0,1.3403976E-1,-1.3757037E-1,-6.5530664E-1,-1.5371396E-1,-1.1942554E0,-1.4951245E-1,1.3662131E-1,-2.0157617E-1,-4.7183907E-1,-4.247827E-1,7.9375595E-1,-1.0165107E0,-8.987786E-2,-1.2147391E0,-4.812431E-1,-1.0593488E0,3.6680093E-1,-1.361425E0,-7.2075665E-1,1.1136204E-1,-9.4423965E-2,9.246877E-2,4.012065E-2,-9.404748E-2,6.406696E-2,-8.617652E-2,5.2912124E-2,-2.9140903E-2,-1.4099418E-1,-8.2865834E-2,1.3511659E-1,1.2163782E-1,-8.314963E-2,8.2473986E-2,4.240903E-2,-1.46853E-1,4.4099744E-2,-2.331503E-2,7.308256E-2,5.720485E-2,2.529918E-2,4.345074E-2,-1.5209818E-1,4.553617E-2,-3.191792E-2,4.7458477E-2,-1.4130549E-1,-3.8667437E-2,1.9356564E-2,-1.3728313E-1,-9.5021335E-4,-2.0544013E-2,8.677902E-2,1.7458532E-2,-1.6332159E-2,-7.592931E-3,-5.4322254E-2,3.7533335E-2,-4.9231928E-2,1.18844725E-1,-7.695318E-2,9.650874E-2,-1.1761849E-2,-6.443953E-2,-1.08052395E-1,-1.5004449E-1,2.2879755E-2,2.0633422E-2,-1.2702416E-1,-2.6482418E-2,-9.370797E-2,-1.3545536E-1,-9.224204E-2,1.8422185E-1,-1.397508E-1,-1.0658379E-2,-1.3933058E-1,9.9810116E-2,-1.3026494E-1],"categories":[],"categories_nodes":[],"categories_segments":[],"categories_sizes":[],"default_left":[0,0,0,0,0,0,0,0,0,0,0,0,0,0,0,0,0,0,0,0,0,0,0,0,0,0,0,0,0,0,0,0,0,0,0,0,0,0,0,0,0,0,0,0,0,0,0,0,0,0,0,0,0,0,0,0,0,0,0,0,0,0,0,0,0,0,0,0,0,0,0,0,0,0,0,0,0,0,0,0,0,0,0,0,0,0,0,0,0,0,0,0,0,0,0,0,0,0,0,0,0,0,0,0,0,0,0,0,0,0,0,0,0,0,0,0,0,0,0,0,0,0,0],"id":5,"left_children":[1,3,5,7,9,11,13,15,17,19,21,23,25,27,29,31,33,35,37,39,41,43,45,47,49,51,53,55,57,59,61,63,65,67,69,71,73,75,-1,77,79,81,83,85,87,-1,89,91,93,95,97,99,101,103,105,107,109,111,113,115,117,119,121,-1,-1,-1,-1,-1,-1,-1,-1,-1,-1,-1,-1,-1,-1,-1,-1,-1,-1,-1,-1,-1,-1,-1,-1,-1,-1,-1,-1,-1,-1,-1,-1,-1,-1,-1,-1,-1,-1,-1,-1,-1,-1,-1,-1,-1,-1,-1,-1,-1,-1,-1,-1,-1,-1,-1,-1,-1,-1,-1,-1],"loss_changes":[5.5880596E3,2.655818E2,1.7468995E3,1.20361084E2,1.2246057E2,4.2212036E2,5.442578E1,7.623779E1,3.0245636E1,5.9875E1,3.5911034E1,7.0058174E1,2.0969482E2,8.8291504E1,2.496521E1,3.3590332E1,1.6454708E1,1.7930244E1,3.0940857E1,4.7723206E1,3.789807E1,3.2461876E1,3.4645042E0,6.256769E1,5.5348637E1,8.362329E1,4.7081024E1,4.7592773E1,6.369577E1,7.0461914E1,1.824878E1,3.443445E1,2.7389343E1,1.5127983E1,2.7642437E1,2.4302826E0,6.2684937E0,2.008671E1,0E0,2.4206543E1,5.558557E1,4.7656708E1,4.36008E1,5.103775E0,1.9942154E1,0E0,1.3361465E1,5.5136833E1,1.3360962E1,4.658422E1,4.5041237E1,7.158986E1,6.3826477E1,2.2256021E1,2.9880112E1,3.8585693E1,2.6669504E1,1.1394791E1,7.4776276E1,2.861737E1,9.8579544E1,1.6779724E1,5.610154E1,0E0,0E0,0E0,0E0,0E0,0E0,0E0,0E0,0E0,0E0,0E0,0E0,0E0,0E0,0E0,0E0,0E0,0E0,0E0,0E0,0E0,0E0,0E0,0E0,0E0,0E0,0E0,0E0,0E0,0E0,0E0,0E0,0E0,0E0,0E0,0E0,0E0,0E0,0E0,0E0,0E0,0E0,0E0,0E0,0E0,0E0,0E0,0E0,0E0,0E0,0E0,0E0,0E0,0E0,0E0,0E0,0E0,0E0,0E0,0E0],"parents":[2147483647,0,0,1,1,2,2,3,3,4,4,5,5,6,6,7,7,8,8,9,9,10,10,11,11,12,12,13,13,14,14,15,15,16,16,17,17,18,18,19,19,20,20,21,21,22,22,23,23,24,24,25,25,26,26,27,27,28,28,29,29,30,30,31,31,32,32,33,33,34,34,35,35,36,36,37,37,39,39,40,40,41,41,42,42,43,43,44,44,46,46,47,47,48,48,49,49,50,50,51,51,52,52,53,53,54,54,55,55,56,56,57,57,58,58,59,59,60,60,61,61,62,62],"right_children":[2,4,6,8,10,12,14,16,18,20,22,24,26,28,30,32,34,36,38,40,42,44,46,48,50,52,54,56,58,60,62,64,66,68,70,72,74,76,-1,78,80,82,84,86,88,-1,90,92,94,96,98,100,102,104,106,108,110,112,114,116,118,120,122,-1,-1,-1,-1,-1,-1,-1,-1,-1,-1,-1,-1,-1,-1,-1,-1,-1,-1,-1,-1,-1,-1,-1,-1,-1,-1,-1,-1,-1,-1,-1,-1,-1,-1,-1,-1,-1,-1,-1,-1,-1,-1,-1,-1,-1,-1,-1,-1,-1,-1,-1,-1,-1,-1,-1,-1,-1,-1,-1,-1],"split_conditions":[-5.431883E4,-1.9266697E5,2E1,-3.1248355E-2,1.6E1,3.180605E4,-3.6020156E-2,1.3E1,6.292693E5,-3.5311267E-2,2E1,-7.004445E-2,5.7249114E-2,-4.4760823E-2,2.680489E5,-4.7546346E-2,9.52014E3,9.47498E5,1.4E1,-4.414821E-2,-6.317945E-2,-2.5459653E-2,-6.809268E4,5.2457293E-3,-6.395358E-2,7.633267E4,-4.253267E-2,1.5425567E-2,4.46127E-3,2.2925952E5,5.7249114E-2,1.5466988E5,-4.669553E-2,-5.65002E-2,1.4626014E-3,-1.1273639E5,1.6E1,4.695288E7,-1.3909622E-1,-4.004732E-2,-1.304506E5,-7.375656E-2,-1.7340466E-2,7.036964E-3,-5.783391E8,-1.3757037E-1,-4.46615E-2,1.814713E7,2.1367807E4,-2.4298318E-2,-3.539599E-2,-2.7229493E-2,-8.0516934E-2,-3.3152338E-2,3.1098335E0,-3.8529467E-2,3.4941678E5,-7.181792E-2,-5.5260297E-2,-3.2225557E-2,-2.6275856E-2,1.9528119E5,5.3253025E5,1.1136204E-1,-9.4423965E-2,9.246877E-2,4.012065E-2,-9.404748E-2,6.406696E-2,-8.617652E-2,5.2912124E-2,-2.9140903E-2,-1.4099418E-1,-8.2865834E-2,1.3511659E-1,1.2163782E-1,-8.314963E-2,8.2473986E-2,4.240903E-2,-1.46853E-1,4.4099744E-2,-2.331503E-2,7.308256E-2,5.720485E-2,2.529918E-2,4.345074E-2,-1.5209818E-1,4.553617E-2,-3.191792E-2,4.7458477E-2,-1.4130549E-1,-3.8667437E-2,1.9356564E-2,-1.3728313E-1,-9.5021335E-4,-2.0544013E-2,8.677902E-2,1.7458532E-2,-1.6332159E-2,-7.592931E-3,-5.4322254E-2,3.7533335E-2,-4.9231928E-2,1.18844725E-1,-7.695318E-2,9.650874E-2,-1.1761849E-2,-6.443953E-2,-1.08052395E-1,-1.5004449E-1,2.2879755E-2,2.0633422E-2,-1.2702416E-1,-2.6482418E-2,-9.370797E-2,-1.3545536E-1,-9.224204E-2,1.8422185E-1,-1.397508E-1,-1.0658379E-2,-1.3933058E-1,9.9810116E-2,-1.3026494E-1],"split_indices":[9,9,30,29,30,9,29,30,18,26,30,17,23,29,18,26,8,14,30,29,29,23,12,23,29,9,17,26,22,21,23,10,27,1,15,8,30,18,0,1,12,27,22,24,25,0,27,25,20,27,29,27,29,26,7,27,12,17,17,29,29,12,18,0,0,0,0,0,0,0,0,0,0,0,0,0,0,0,0,0,0,0,0,0,0,0,0,0,0,0,0,0,0,0,0,0,0,0,0,0,0,0,0,0,0,0,0,0,0,0,0,0,0,0,0,0,0,0,0,0,0,0,0],"split_type":[0,0,0,0,0,0,0,0,0,0,0,0,0,0,0,0,0,0,0,0,0,0,0,0,0,0,0,0,0,0,0,0,0,0,0,0,0,0,0,0,0,0,0,0,0,0,0,0,0,0,0,0,0,0,0,0,0,0,0,0,0,0,0,0,0,0,0,0,0,0,0,0,0,0,0,0,0,0,0,0,0,0,0,0,0,0,0,0,0,0,0,0,0,0,0,0,0,0,0,0,0,0,0,0,0,0,0,0,0,0,0,0,0,0,0,0,0,0,0,0,0,0,0],"sum_hessian":[2.2479432E4,7.554252E3,1.492518E4,2.9419197E3,4.612332E3,1.1070171E4,3.8550088E3,2.8743274E3,6.759232E1,4.4262437E3,1.860884E2,5.50843E3,5.56174E3,2.6053086E3,1.2497003E3,2.7383665E3,1.3596089E2,3.347712E1,3.4115204E1,1.9049749E3,2.5212688E3,1.5003574E2,3.6052666E1,7.418115E2,4.7666187E3,5.334736E3,2.270046E2,1.7056633E3,8.9964514E2,7.737579E2,4.7594247E2,1.5203541E3,1.2180123E3,8.070794E1,5.525296E1,2.9156546E1,4.320574E0,2.6569326E1,7.545875E0,1.6315881E3,2.7338675E2,7.911305E2,1.7301383E3,1.5095883E1,1.3493985E2,2.2229906E1,1.382276E1,6.7959784E2,6.221368E1,8.146368E2,3.951982E3,1.6676809E3,3.667055E3,3.7372932E1,1.8963167E2,1.6480973E3,5.756606E1,1.4014679E2,7.5949835E2,7.378768E2,3.588115E1,4.2215155E2,5.3790905E1,1.5128887E3,7.4654303E0,1.1057439E3,1.122685E2,5.7003393E0,7.50076E1,2.8265636E1,2.6987322E1,2.7343552E0,2.642219E1,1.1348046E0,3.1857693E0,2.122928E1,5.340047E0,1.4596683E3,1.7191986E2,1.5230694E1,2.5815604E2,5.466597E1,7.364645E2,7.910814E2,9.3905695E2,1.0383921E0,1.4057492E1,7.895665E1,5.59832E1,5.698829E0,8.12393E0,4.066784E2,2.7291943E2,5.392666E1,8.287023E0,7.729413E2,4.169549E1,3.508346E3,4.4363605E2,1.2201647E3,4.4751627E2,8.614864E1,3.5809062E3,6.149498E0,3.1223434E1,1.5957402E2,3.0057638E1,2.4352542E2,1.4045719E3,9.925224E0,4.7640835E1,5.1657786E0,1.34981E2,5.160654E2,2.4343295E2,2.3099057E2,5.0688617E2,1.9516314E1,1.6364836E1,1.0567114E1,4.1158444E2,1.3423589E1,4.0367317E1],"tree_param":{"num_deleted":"0","num_feature":"31","num_nodes":"123","size_leaf_vector":"1"}},{"base_weights":[-2.9282275E-4,6.5813714E-1,-3.17009E-1,8.711013E-1,5.186212E-1,-1.3300471E-1,-8.688263E-1,9.0964735E-1,-8.735146E-2,5.3955823E-1,-5.8649653E-1,4.309542E-2,-3.146628E-1,-8.386084E-1,-1.3442793E0,9.2859167E-1,-1.6371778E-1,3.2864224E-2,-1.3827112E-1,6.7639065E-1,4.3990976E-1,-1.3942134E0,-2.6856065E-1,7.161057E-2,-3.450254E-1,-3.4861013E-1,6.359521E-1,-8.478807E-1,1.9546738E-1,-8.8647836E-1,-1.3756123E-1,1.0292299E0,7.858856E-1,-1.2098954E0,7.412111E-1,3.0802223E-1,-7.062612E-1,7.319191E-1,2.4822159E-1,6.1618954E-1,3.5763422E-1,-1.6193901E-1,7.662837E-2,1.01787776E-1,-1.3191842E0,-2.3204228E-1,1.04753055E-1,-2.0924474E-1,-1.2802334E0,-6.3764393E-1,-2.9379323E-1,-1.4042541E0,7.1433496E-1,-1.1822251E0,-8.1845206E-1,1.4564912E0,-1.3239822E-1,6.7836836E-2,-1.3245474E-1,1.0436483E-1,-2.7963614E-2,9.848223E-2,6.564152E-2,-1.3273558E-1,1.695543E-2,1.1490013E-1,-7.774588E-2,5.4680973E-2,-3.50345E-2,-1.6219139E-1,6.553532E-2,-1.0301321E-1,7.429268E-2,1.0860419E-1,-2.9022573E-3,8.614338E-2,3.960292E-2,5.2234408E-2,2.1334227E-2,4.91348E-2,-7.405827E-2,-8.228092E-3,-1.4857449E-1,-8.5866265E-2,-6.831543E-3,7.35982E-3,4.0082738E-2,7.2693946E-3,-5.0958145E-2,-1.4433758E-1,5.885917E-2,-2.411527E-2,-8.419561E-2,1.0608389E-1,-3.0654056E-2,-1.723812E-1,-2.0193933E-2,9.2400946E-2,7.7372612E-3,1.9383857E-2,-1.2621321E-1,-1.6566633E-3,-8.332967E-2,1.8118966E-1,-1.1865713E-1,-1.041429E-1,1.0572442E-1],"categories":[],"categories_nodes":[],"categories_segments":[],"categories_sizes":[],"default_left":[0,0,0,0,0,0,0,0,0,0,0,0,0,0,0,0,0,0,0,0,0,0,0,0,0,0,0,0,0,0,0,0,0,0,0,0,0,0,0,0,0,0,0,0,0,0,0,0,0,0,0,0,0,0,0,0,0,0,0,0,0,0,0,0,0,0,0,0,0,0,0,0,0,0,0,0,0,0,0,0,0,0,0,0,0,0,0,0,0,0,0,0,0,0,0,0,0,0,0,0,0,0,0,0,0,0,0],"id":6,"left_children":[1,3,5,7,9,11,13,15,17,19,21,23,25,27,29,31,33,35,-1,37,39,41,43,45,47,49,51,53,55,57,-1,59,61,63,65,67,69,71,73,75,77,-1,-1,79,81,83,85,87,89,91,93,95,97,99,101,103,-1,105,-1,-1,-1,-1,-1,-1,-1,-1,-1,-1,-1,-1,-1,-1,-1,-1,-1,-1,-1,-1,-1,-1,-1,-1,-1,-1,-1,-1,-1,-1,-1,-1,-1,-1,-1,-1,-1,-1,-1,-1,-1,-1,-1,-1,-1,-1,-1,-1,-1],"loss_changes":[4.6241655E3,2.1353369E2,1.5201401E3,1.05341064E2,1.010553E2,3.592467E2,5.2662598E1,5.584912E1,1.7341125E1,5.7970947E1,2.0537315E1,6.3140297E1,1.7860376E2,3.394409E1,1.9660339E0,3.7849365E1,4.667566E1,2.108636E1,0E0,4.2587585E1,3.5683594E1,1.2314167E1,2.3351673E1,5.3497284E1,4.9317097E1,8.438306E1,3.153859E1,3.338867E1,6.347375E1,7.2126474E0,0E0,3.002063E1,2.8134766E1,3.920536E0,1.7334532E1,1.2056402E1,3.61476E1,3.1641235E1,4.835141E1,4.2117065E1,4.005774E1,0E0,0E0,1.5146089E1,3.096487E0,5.3616524E1,4.41654E1,2.9011173E1,1.5883583E1,6.86608E1,7.7834595E1,2.4957027E0,2.4575226E1,3.1057587E1,3.822705E1,1.9085876E1,0E0,8.028245E0,0E0,0E0,0E0,0E0,0E0,0E0,0E0,0E0,0E0,0E0,0E0,0E0,0E0,0E0,0E0,0E0,0E0,0E0,0E0,0E0,0E0,0E0,0E0,0E0,0E0,0E0,0E0,0E0,0E0,0E0,0E0,0E0,0E0,0E0,0E0,0E0,0E0,0E0,0E0,0E0,0E0,0E0,0E0,0E0,0E0,0E0,0E0,0E0,0E0],"parents":[2147483647,0,0,1,1,2,2,3,3,4,4,5,5,6,6,7,7,8,8,9,9,10,10,11,11,12,12,13,13,14,14,15,15,16,16,17,17,19,19,20,20,21,21,22,22,23,23,24,24,25,25,26,26,27,27,28,28,29,29,31,31,32,32,33,33,34,34,35,35,36,36,37,37,38,38,39,39,40,40,43,43,44,44,45,45,46,46,47,47,48,48,49,49,50,50,51,51,52,52,53,53,54,54,55,55,57,57],"right_children":[2,4,6,8,10,12,14,16,18,20,22,24,26,28,30,32,34,36,-1,38,40,42,44,46,48,50,52,54,56,58,-1,60,62,64,66,68,70,72,74,76,78,-1,-1,80,82,84,86,88,90,92,94,96,98,100,102,104,-1,106,-1,-1,-1,-1,-1,-1,-1,-1,-1,-1,-1,-1,-1,-1,-1,-1,-1,-1,-1,-1,-1,-1,-1,-1,-1,-1,-1,-1,-1,-1,-1,-1,-1,-1,-1,-1,-1,-1,-1,-1,-1,-1,-1,-1,-1,-1,-1,-1,-1],"split_conditions":[-6.050335E4,-1.9266697E5,2E1,1.4E1,1.8E1,3.180605E4,-1.6061531E-2,-3.1248355E-2,6.292693E5,-3.5311267E-2,-5.1483896E-2,1.6E1,7.596795E-2,-1.7852029E-2,2.2E1,-8.261662E-3,6.292693E5,-2.4124489E5,-1.3827112E-1,-3.627927E-2,-6.317945E-2,1.285845E4,-4.4291425E-2,-7.046463E-2,1.4773756E-2,-5.6633037E-3,-5.3300537E-2,3.9917976E-4,1.9528119E5,8.11556E3,-1.3756123E-1,-4.0165357E-2,-7.311264E-2,-2.2734228E5,4.695288E7,-6.0110327E-2,-1.7146772E5,-9.371102E-2,-5.93865E-2,-1.0061808E-2,-1.6986776E-2,-1.6193901E-1,7.662837E-2,2E1,-5.9158E3,-1.2083351E8,1.367073E4,-2.3124762E4,-2.3687373E4,3.517986E4,-5.065835E-2,1.6E1,1.6790966E7,-1.5270125E-2,-7.913024E-2,-4.146246E-3,-1.3239822E-1,3.2413648E6,-1.3245474E-1,1.0436483E-1,-2.7963614E-2,9.848223E-2,6.564152E-2,-1.3273558E-1,1.695543E-2,1.1490013E-1,-7.774588E-2,5.4680973E-2,-3.50345E-2,-1.6219139E-1,6.553532E-2,-1.0301321E-1,7.429268E-2,1.0860419E-1,-2.9022573E-3,8.614338E-2,3.960292E-2,5.2234408E-2,2.1334227E-2,4.91348E-2,-7.405827E-2,-8.228092E-3,-1.4857449E-1,-8.5866265E-2,-6.831543E-3,7.35982E-3,4.0082738E-2,7.2693946E-3,-5.0958145E-2,-1.4433758E-1,5.885917E-2,-2.411527E-2,-8.419561E-2,1.0608389E-1,-3.0654056E-2,-1.723812E-1,-2.0193933E-2,9.2400946E-2,7.7372612E-3,1.9383857E-2,-1.2621321E-1,-1.6566633E-3,-8.332967E-2,1.8118966E-1,-1.1865713E-1,-1.041429E-1,1.0572442E-1],"split_indices":[9,9,30,30,30,9,29,29,18,26,27,30,22,29,30,24,18,9,0,27,29,8,29,17,22,23,1,22,12,8,0,27,29,19,18,29,18,29,29,23,22,0,0,30,14,25,13,21,19,16,26,30,10,26,29,26,0,25,0,0,0,0,0,0,0,0,0,0,0,0,0,0,0,0,0,0,0,0,0,0,0,0,0,0,0,0,0,0,0,0,0,0,0,0,0,0,0,0,0,0,0,0,0,0,0,0,0],"split_type":[0,0,0,0,0,0,0,0,0,0,0,0,0,0,0,0,0,0,0,0,0,0,0,0,0,0,0,0,0,0,0,0,0,0,0,0,0,0,0,0,0,0,0,0,0,0,0,0,0,0,0,0,0,0,0,0,0,0,0,0,0,0,0,0,0,0,0,0,0,0,0,0,0,0,0,0,0,0,0,0,0,0,0,0,0,0,0,0,0,0,0,0,0,0,0,0,0,0,0,0,0,0,0,0,0,0,0],"sum_hessian":[2.2172484E4,7.201016E3,1.4971469E4,2.848174E3,4.3528423E3,1.1228538E4,3.7429307E3,2.7381067E3,1.100673E2,4.2724106E3,8.0431335E1,5.701877E3,5.5266606E3,3.5218584E3,2.2107224E2,2.6907515E3,4.7355427E1,1.0161185E2,8.455444E0,1.797873E3,2.4745378E3,2.1761356E1,5.8669983E1,5.3123926E3,3.894848E2,5.3367153E3,1.8994554E2,3.4907378E3,3.1120768E1,1.6037907E1,2.0503433E2,1.574313E3,1.1164385E3,2.1807281E1,2.5548145E1,7.44713E1,2.714055E1,1.5908494E3,2.070236E2,7.853639E2,1.689174E3,1.9934181E1,1.8271741E0,4.4046543E1,1.4623442E1,5.221776E2,4.790215E3,3.4117426E2,4.8310547E1,8.490875E2,4.487628E3,6.401716E0,1.8354382E2,2.7922647E2,3.2115112E3,1.7029255E1,1.4091511E1,5.3117094E0,1.0726196E1,1.5573599E3,1.6953054E1,4.375372E2,6.789012E2,2.0130898E1,1.676384E0,2.0332043E1,5.216102E0,5.47743E1,1.9697002E1,1.6113466E1,1.1027084E1,9.301771E0,1.5815476E3,5.0747993E1,1.562756E2,3.7013965E2,4.1522424E2,7.875558E2,9.016182E2,3.0403114E1,1.3643428E1,1.9127901E0,1.2710651E1,1.07294075E2,4.1488358E2,4.3352773E3,4.549374E2,1.7636807E2,1.6480618E2,4.4641174E1,3.6693738E0,2.8948633E2,5.596012E2,4.10692E1,4.4465586E3,4.7148366E0,1.6868799E0,1.377491E2,4.579472E1,1.524633E1,2.6398013E2,5.8409897E1,3.1531013E3,1.52879925E1,1.7412636E0,2.479387E0,2.8323224E0],"tree_param":{"num_deleted":"0","num_feature":"31","num_nodes":"107","size_leaf_vector":"1"}},{"base_weights":[-3.0400525E-4,5.557826E-1,-3.1583905E-1,8.1267023E-1,4.1864806E-1,-1.4438543E-1,-8.0696917E-1,8.4949577E-1,-8.175493E-2,4.440844E-1,-5.983864E-1,-2.4617137E-2,-3.4860793E-1,-7.7685314E-1,-1.2946266E0,-4.6663398E-1,8.6393124E-1,2.9025722E-2,-1.3149172E-1,5.051905E-1,1.7997487E-1,-3.794537E-1,-1.4333338E0,-2.3874766E-1,3.752399E-2,-3.9823264E-1,5.638202E-1,1.2823823E-1,-7.876436E-1,-8.414186E-1,-1.3263252E-1,-1.8338428E-1,-3.7560558E-3,9.666157E-1,7.202144E-1,2.7960047E-1,-6.476174E-1,6.377577E-1,3.655821E-1,2.58099E-1,-5.832573E-1,-1.6192589E-2,-9.803189E-1,-4.7643748E-1,-1.530634E-1,4.6928817E-1,-2.9958537E-1,7.589481E-2,-1.8889496E-1,-6.383683E-1,-3.2389492E-1,-8.0195934E-1,7.1445525E-1,-1.4548017E-1,1.5241659E-1,-7.361966E-1,-1.0329396E0,6.1440144E-2,-1.2685868E-1,8.615025E-2,-4.6673767E-2,9.982741E-2,3.3343025E-2,9.494051E-2,5.790574E-2,1.4741354E-2,1.4862865E-1,-1.4941916E-1,5.9900757E-2,7.054006E-2,3.2068122E-2,3.915783E-2,-3.085545E-2,2.1254849E-2,1.14657246E-1,-1.0399244E-2,-1.3568E-1,-9.23435E-2,2.5701458E-2,-3.4004346E-2,-1.2331181E-1,5.9966903E-2,-1.0678227E-1,-6.47948E-2,6.5106295E-2,-2.319334E-2,-8.2297534E-2,1.6733439E-3,2.8662825E-2,-3.72881E-2,5.6066938E-2,-1.0756159E-3,-8.2381174E-2,4.66234E-2,-3.5381686E-2,5.8745034E-2,-1.4767359E-1,1.5377915E-1,5.1949304E-2,2.8337527E-2,-1.2959991E-1,-7.650819E-2,-7.5488845E-3,-1.123692E-1,-3.4261554E-2,-9.983529E-2,9.790045E-2],"categories":[],"categories_nodes":[],"categories_segments":[],"categories_sizes":[],"default_left":[0,0,0,0,0,0,0,0,0,0,0,0,0,0,0,0,0,0,0,0,0,0,0,0,0,0,0,0,0,0,0,0,0,0,0,0,0,0,0,0,0,0,0,0,0,0,0,0,0,0,0,0,0,0,0,0,0,0,0,0,0,0,0,0,0,0,0,0,0,0,0,0,0,0,0,0,0,0,0,0,0,0,0,0,0,0,0,0,0,0,0,0,0,0,0,0,0,0,0,0,0,0,0,0,0,0,0],"id":7,"left_children":[1,3,5,7,9,11,13,15,17,19,21,23,25,27,29,31,33,35,-1,37,39,41,43,45,47,49,51,53,55,57,-1,-1,59,61,63,65,67,69,71,73,75,77,79,81,-1,83,85,87,89,91,93,95,97,99,-1,101,103,105,-1,-1,-1,-1,-1,-1,-1,-1,-1,-1,-1,-1,-1,-1,-1,-1,-1,-1,-1,-1,-1,-1,-1,-1,-1,-1,-1,-1,-1,-1,-1,-1,-1,-1,-1,-1,-1,-1,-1,-1,-1,-1,-1,-1,-1,-1,-1,-1,-1],"loss_changes":[3.8367295E3,2.785166E2,1.1745886E3,9.0776855E1,1.3382587E2,2.5294334E2,5.200659E1,5.0656982E1,1.503981E1,8.120648E1,2.2561504E1,8.676363E1,1.7332162E2,3.332837E1,1.8786621E0,1.856489E1,3.7920288E1,1.7431023E1,0E0,7.546924E1,5.668006E1,2.2138836E1,1.6820183E0,6.3315742E1,4.3924553E1,6.452673E1,4.1227547E1,1.58657465E1,4.167041E1,6.3882675E0,0E0,0E0,9.586154E0,3.020337E1,3.485669E1,1.1735033E1,3.0229912E1,4.4744812E1,3.5076447E1,3.4589863E1,3.260875E1,1.6168734E1,5.7680626E0,3.0855439E0,0E0,2.4068554E1,4.7652374E1,5.3885014E1,1.0125416E2,9.963925E1,6.5680084E1,1.9712772E1,2.785492E1,1.7707466E1,0E0,5.305139E1,3.597888E1,7.0149946E0,0E0,0E0,0E0,0E0,0E0,0E0,0E0,0E0,0E0,0E0,0E0,0E0,0E0,0E0,0E0,0E0,0E0,0E0,0E0,0E0,0E0,0E0,0E0,0E0,0E0,0E0,0E0,0E0,0E0,0E0,0E0,0E0,0E0,0E0,0E0,0E0,0E0,0E0,0E0,0E0,0E0,0E0,0E0,0E0,0E0,0E0,0E0,0E0,0E0],"parents":[2147483647,0,0,1,1,2,2,3,3,4,4,5,5,6,6,7,7,8,8,9,9,10,10,11,11,12,12,13,13,14,14,15,15,16,16,17,17,19,19,20,20,21,21,22,22,23,23,24,24,25,25,26,26,27,27,28,28,29,29,32,32,33,33,34,34,35,35,36,36,37,37,38,38,39,39,40,40,41,41,42,42,43,43,45,45,46,46,47,47,48,48,49,49,50,50,51,51,52,52,53,53,55,55,56,56,57,57],"right_children":[2,4,6,8,10,12,14,16,18,20,22,24,26,28,30,32,34,36,-1,38,40,42,44,46,48,50,52,54,56,58,-1,-1,60,62,64,66,68,70,72,74,76,78,80,82,-1,84,86,88,90,92,94,96,98,100,-1,102,104,106,-1,-1,-1,-1,-1,-1,-1,-1,-1,-1,-1,-1,-1,-1,-1,-1,-1,-1,-1,-1,-1,-1,-1,-1,-1,-1,-1,-1,-1,-1,-1,-1,-1,-1,-1,-1,-1,-1,-1,-1,-1,-1,-1,-1,-1,-1,-1,-1,-1],"split_conditions":[-3.718964E4,-1.9266697E5,2E1,1.4E1,1.8E1,7.633267E4,-1.6061531E-2,-1.5424443E0,6.292693E5,-3.7025135E-2,-4.3513082E-2,-6.556336E-2,4.663245E5,-3.631946E5,2.2E1,1.8812315E-1,-8.261662E-3,-2.4124489E5,-1.3149172E-1,-1.1735214E-2,-3.3301227E-2,2E1,-5.9158E3,-1.800658E-2,-3.9297823E-2,-1.7017898E-3,-3.604966E-1,-3.7848853E-2,2.86016E5,8.11556E3,-1.3263252E-1,-1.8338428E-1,2E0,-4.4156283E-2,-7.311264E-2,-2.4999166E5,-1.7146772E5,5.224438E-3,-4.414821E-2,-3.4802724E-2,-3.0471113E-2,-5.1483896E-2,-7.016594E-2,3.15572E3,-1.530634E-1,-2.8617913E-2,-3.6904093E-2,-4.737453E-2,-4.0329635E-2,9.363068E4,-8.0516934E-2,5.962794E6,3.9719594E5,-6.162847E-2,1.5241659E-1,2.369855E5,1.5425567E-2,3.2413648E6,-1.2685868E-1,8.615025E-2,-4.6673767E-2,9.982741E-2,3.3343025E-2,9.494051E-2,5.790574E-2,1.4741354E-2,1.4862865E-1,-1.4941916E-1,5.9900757E-2,7.054006E-2,3.2068122E-2,3.915783E-2,-3.085545E-2,2.1254849E-2,1.14657246E-1,-1.0399244E-2,-1.3568E-1,-9.23435E-2,2.5701458E-2,-3.4004346E-2,-1.2331181E-1,5.9966903E-2,-1.0678227E-1,-6.47948E-2,6.5106295E-2,-2.319334E-2,-8.2297534E-2,1.6733439E-3,2.8662825E-2,-3.72881E-2,5.6066938E-2,-1.0756159E-3,-8.2381174E-2,4.66234E-2,-3.5381686E-2,5.8745034E-2,-1.4767359E-1,1.5377915E-1,5.1949304E-2,2.8337527E-2,-1.2959991E-1,-7.650819E-2,-7.5488845E-3,-1.123692E-1,-3.4261554E-2,-9.983529E-2,9.790045E-2],"split_indices":[9,9,30,30,30,9,29,22,18,27,29,17,9,19,30,1,24,9,0,22,29,30,14,22,29,23,23,27,18,8,0,0,30,27,29,19,18,24,29,29,27,27,17,0,0,27,29,29,17,12,29,21,13,29,0,19,26,25,0,0,0,0,0,0,0,0,0,0,0,0,0,0,0,0,0,0,0,0,0,0,0,0,0,0,0,0,0,0,0,0,0,0,0,0,0,0,0,0,0,0,0,0,0,0,0,0,0],"split_type":[0,0,0,0,0,0,0,0,0,0,0,0,0,0,0,0,0,0,0,0,0,0,0,0,0,0,0,0,0,0,0,0,0,0,0,0,0,0,0,0,0,0,0,0,0,0,0,0,0,0,0,0,0,0,0,0,0,0,0,0,0,0,0,0,0,0,0,0,0,0,0,0,0,0,0,0,0,0,0,0,0,0,0,0,0,0,0,0,0,0,0,0,0,0,0,0,0,0,0,0,0,0,0,0,0,0,0],"sum_hessian":[2.1864092E4,7.9147266E3,1.3949366E4,2.752908E3,5.1618184E3,1.0340715E4,3.6086511E3,2.6440947E3,1.0881324E2,5.0364194E3,1.25398964E2,6.518813E3,3.8219014E3,3.401198E3,2.0745316E2,2.8346216E1,2.6157485E3,1.00739784E2,8.073457E0,4.0893645E3,9.470549E2,1.0050094E2,2.4898027E1,1.465622E3,5.053191E3,3.6252942E3,1.9660727E2,3.9943146E1,3.361255E3,1.5361872E1,1.9209128E2,6.4203916E0,2.1925825E1,1.5223304E3,1.0934182E3,7.39437E1,2.679608E1,2.095748E3,1.9936163E3,8.597165E2,8.733839E1,6.3274464E1,3.7226475E1,2.8422825E0,2.2055744E1,1.1543723E2,1.3501847E3,4.321499E3,7.316921E2,8.551824E2,2.7701118E3,1.9100729E1,1.7750655E2,3.4143875E1,5.799269E0,2.7818132E3,5.794416E2,5.2087893E0,1.0153082E1,7.342597E0,1.4583228E1,1.4492911E3,7.3039215E1,4.1457092E2,6.788473E2,6.765462E1,6.2890897E0,1.5840392E1,1.09556875E1,1.7262557E3,3.6949237E2,1.9199962E3,7.362014E1,8.1896857E2,4.0747894E1,5.462731E1,3.271108E1,1.4093621E1,4.9180843E1,1.1201375E1,2.6025103E1,1.0030634E0,1.839219E0,1.5794637E1,9.964259E1,1.1969175E3,1.5326718E2,3.3750623E3,9.4643677E2,5.878922E2,1.437999E2,1.9529309E2,6.598893E2,1.005435E2,2.6695684E3,6.28628E0,1.2814449E1,3.266649E1,1.4484004E2,2.5421661E1,8.722215E0,2.665139E3,1.1667444E2,5.11562E2,6.78796E1,2.376207E0,2.832582E0],"tree_param":{"num_deleted":"0","num_feature":"31","num_nodes":"107","size_leaf_vector":"1"}},{"base_weights":[-3.3265675E-4,5.594328E-1,-2.6380244E-1,7.58376E-1,4.3443453E-1,-1.0958829E-1,-7.532101E-1,8.0777717E-1,1.5356265E-1,4.5184472E-1,-5.0233996E-1,2.6568666E-2,-2.7246574E-1,-6.696902E-1,-9.3196505E-1,8.2480156E-1,-1.7621326E-1,4.507603E-1,-2.5281534E-1,5.0015E-1,2.1235672E-1,-1.2451328E0,-2.1744402E-1,2.6409715E-1,-1.1328103E-2,-3.084537E-1,4.644463E-1,-8.087127E-1,-4.1034374E-1,-8.130781E-1,-1.1329844E0,9.495696E-1,7.1441936E-1,-1.1595179E0,6.8450403E-1,7.69052E-1,-1.1153173E-1,9.149236E-2,-9.574314E-1,5.2626777E-1,-2.5437737E-1,3.2800087E-1,-1.7205593E-1,-1.4742145E-1,7.752677E-2,1.0253057E-1,-1.1817276E0,2.8799817E-1,-1.0738733E0,2.0306496E-2,-2.5411353E-1,-7.6540965E-1,-2.765511E-1,1.1887668E0,1.8261321E-1,-8.379111E-1,-2.989011E-2,-1.0399785E0,-2.9701486E-1,-8.6472774E-1,9.3342006E-1,-1.2103617E0,-5.279867E-1,-3.5429686E-2,9.695371E-2,8.484583E-2,5.324269E-2,-1.2876834E-1,4.2849403E-2,1.186883E-1,-3.4685742E-2,8.6515434E-2,-1.2932189E-1,2.2982016E-2,-9.028184E-2,-3.8373094E-2,7.875009E-2,-1.5442084E-1,-1.4320827E-2,6.9587134E-2,4.486027E-2,-7.130895E-3,-1.4006081E-1,5.279404E-2,8.234202E-3,-3.0505423E-2,1.4226058E-1,-1.3127143E-2,1.1789141E-1,-6.5491297E-3,-1.3442782E-1,-2.2987017E-2,3.3305213E-2,1.3665222E-1,-1.6597694E-1,1.5455556E-2,-3.1858434E-3,-8.929338E-2,-1.7257523E-2,-3.0139629E-2,-1.0212934E-1,2.8892314E-2,-2.9455123E-2,1.4298879E-1,1.0837083E-2,-8.98542E-2,4.9174603E-2,-4.6086267E-2,-9.049288E-2,3.32058E-2,-1.1084583E-1,-2.6180103E-2,-1.15660824E-1,-1.5745472E-2,-1.0311701E-1,-1.1939766E-1,-7.160257E-2,2.3009741E-1,-1.1611052E-1,5.410553E-4,-1.2444278E-1,1.0460843E-1,-1.15298346E-1],"categories":[],"categories_nodes":[],"categories_segments":[],"categories_sizes":[],"default_left":[0,0,0,0,0,0,0,0,0,0,0,0,0,0,0,0,0,0,0,0,0,0,0,0,0,0,0,0,0,0,0,0,0,0,0,0,0,0,0,0,0,0,0,0,0,0,0,0,0,0,0,0,0,0,0,0,0,0,0,0,0,0,0,0,0,0,0,0,0,0,0,0,0,0,0,0,0,0,0,0,0,0,0,0,0,0,0,0,0,0,0,0,0,0,0,0,0,0,0,0,0,0,0,0,0,0,0,0,0,0,0,0,0,0,0,0,0,0,0,0,0,0,0],"id":8,"left_children":[1,3,5,7,9,11,13,15,17,19,21,23,25,27,29,31,33,35,37,39,41,43,45,47,49,51,53,55,57,59,61,63,65,67,69,71,73,75,77,79,81,83,85,-1,-1,87,89,91,93,95,97,99,101,103,105,107,109,111,113,115,117,119,121,-1,-1,-1,-1,-1,-1,-1,-1,-1,-1,-1,-1,-1,-1,-1,-1,-1,-1,-1,-1,-1,-1,-1,-1,-1,-1,-1,-1,-1,-1,-1,-1,-1,-1,-1,-1,-1,-1,-1,-1,-1,-1,-1,-1,-1,-1,-1,-1,-1,-1,-1,-1,-1,-1,-1,-1,-1,-1,-1,-1],"loss_changes":[3.1800918E3,1.7128052E2,1.1064897E3,7.939783E1,6.938617E1,2.4727713E2,5.182129E1,4.1359985E1,2.4535921E1,4.806067E1,1.6202784E1,5.467857E1,1.3478195E2,8.6118774E1,2.5751587E1,3.263147E1,3.6904488E1,2.105323E1,2.096537E1,6.839789E1,3.1201097E1,1.1033134E1,1.785537E1,2.703675E1,4.024459E1,7.036218E1,4.8120655E1,3.5448853E1,5.9543854E1,6.438956E1,1.8658752E1,2.9822754E1,3.095166E1,4.680599E0,1.2525821E1,1.5970104E1,1.1881361E1,1.9724886E1,1.33165E1,4.3794495E1,2.4360737E1,2.6426228E1,3.4935303E1,0E0,0E0,1.124706E1,2.5248032E0,1.9253304E1,2.3543266E1,3.2472534E1,3.1309395E1,3.7136078E1,4.616089E1,1.70764E1,5.780897E1,3.7575806E1,2.2778925E1,1.1273148E1,7.281357E1,3.2688965E1,6.2041782E1,1.5111877E1,4.893788E1,0E0,0E0,0E0,0E0,0E0,0E0,0E0,0E0,0E0,0E0,0E0,0E0,0E0,0E0,0E0,0E0,0E0,0E0,0E0,0E0,0E0,0E0,0E0,0E0,0E0,0E0,0E0,0E0,0E0,0E0,0E0,0E0,0E0,0E0,0E0,0E0,0E0,0E0,0E0,0E0,0E0,0E0,0E0,0E0,0E0,0E0,0E0,0E0,0E0,0E0,0E0,0E0,0E0,0E0,0E0,0E0,0E0,0E0,0E0,0E0],"parents":[2147483647,0,0,1,1,2,2,3,3,4,4,5,5,6,6,7,7,8,8,9,9,10,10,11,11,12,12,13,13,14,14,15,15,16,16,17,17,18,18,19,19,20,20,21,21,22,22,23,23,24,24,25,25,26,26,27,27,28,28,29,29,30,30,31,31,32,32,33,33,34,34,35,35,36,36,37,37,38,38,39,39,40,40,41,41,42,42,45,45,46,46,47,47,48,48,49,49,50,50,51,51,52,52,53,53,54,54,55,55,56,56,57,57,58,58,59,59,60,60,61,61,62,62],"right_children":[2,4,6,8,10,12,14,16,18,20,22,24,26,28,30,32,34,36,38,40,42,44,46,48,50,52,54,56,58,60,62,64,66,68,70,72,74,76,78,80,82,84,86,-1,-1,88,90,92,94,96,98,100,102,104,106,108,110,112,114,116,118,120,122,-1,-1,-1,-1,-1,-1,-1,-1,-1,-1,-1,-1,-1,-1,-1,-1,-1,-1,-1,-1,-1,-1,-1,-1,-1,-1,-1,-1,-1,-1,-1,-1,-1,-1,-1,-1,-1,-1,-1,-1,-1,-1,-1,-1,-1,-1,-1,-1,-1,-1,-1,-1,-1,-1,-1,-1,-1,-1,-1,-1],"split_conditions":[-6.050335E4,-1.9266697E5,2E1,1.2E1,1.8E1,4.221807E4,-3.6020156E-2,-3.1248355E-2,9.52014E3,1.4504334E-2,-5.1483896E-2,-4.185638E-2,6.292693E5,-4.4760823E-2,2.680489E5,-2.9348703E5,6.292693E5,1.5E1,-2.2486261E5,-3.3301227E-2,-2.5453405E5,1.285845E4,-4.4291425E-2,3.1749506E-2,1.5E1,-1.0958526E-2,3.105631E5,1.5425567E-2,4.46127E-3,2.3620194E5,5.7249114E-2,-1.5424443E0,-4.6037525E-2,-2.2734228E5,8.645073E-1,6.76417E3,-6.5454612E-3,-3.1416647E5,-1.8509273E5,-6.294812E-2,-3.0471113E-2,-4.6796102E-2,-2.090278E-2,-1.4742145E-1,7.752677E-2,-8.854929E4,-5.9158E3,-3.038783E4,-2.0126425E10,-2.4522094E4,-5.4921404E-2,1.0984977E8,-7.819261E-2,5.1891653E5,1.473556E-2,-3.8529467E-2,4.5917856E5,-3.0014455E-2,2.7929184E5,-3.2225557E-2,-2.6275856E-2,1.9528119E5,5.3253025E5,-3.5429686E-2,9.695371E-2,8.484583E-2,5.324269E-2,-1.2876834E-1,4.2849403E-2,1.186883E-1,-3.4685742E-2,8.6515434E-2,-1.2932189E-1,2.2982016E-2,-9.028184E-2,-3.8373094E-2,7.875009E-2,-1.5442084E-1,-1.4320827E-2,6.9587134E-2,4.486027E-2,-7.130895E-3,-1.4006081E-1,5.279404E-2,8.234202E-3,-3.0505423E-2,1.4226058E-1,-1.3127143E-2,1.1789141E-1,-6.5491297E-3,-1.3442782E-1,-2.2987017E-2,3.3305213E-2,1.3665222E-1,-1.6597694E-1,1.5455556E-2,-3.1858434E-3,-8.929338E-2,-1.7257523E-2,-3.0139629E-2,-1.0212934E-1,2.8892314E-2,-2.9455123E-2,1.4298879E-1,1.0837083E-2,-8.98542E-2,4.9174603E-2,-4.6086267E-2,-9.049288E-2,3.32058E-2,-1.1084583E-1,-2.6180103E-2,-1.15660824E-1,-1.5745472E-2,-1.0311701E-1,-1.1939766E-1,-7.160257E-2,2.3009741E-1,-1.1611052E-1,5.410553E-4,-1.2444278E-1,1.0460843E-1,-1.15298346E-1],"split_indices":[9,9,30,30,30,9,29,29,8,24,27,26,18,29,18,9,18,30,21,29,19,8,29,23,30,22,21,26,22,21,23,22,7,19,29,14,26,21,18,29,27,1,29,0,0,19,14,12,25,20,1,25,29,13,23,27,20,27,18,29,29,12,18,0,0,0,0,0,0,0,0,0,0,0,0,0,0,0,0,0,0,0,0,0,0,0,0,0,0,0,0,0,0,0,0,0,0,0,0,0,0,0,0,0,0,0,0,0,0,0,0,0,0,0,0,0,0,0,0,0,0,0,0],"split_type":[0,0,0,0,0,0,0,0,0,0,0,0,0,0,0,0,0,0,0,0,0,0,0,0,0,0,0,0,0,0,0,0,0,0,0,0,0,0,0,0,0,0,0,0,0,0,0,0,0,0,0,0,0,0,0,0,0,0,0,0,0,0,0,0,0,0,0,0,0,0,0,0,0,0,0,0,0,0,0,0,0,0,0,0,0,0,0,0,0,0,0,0,0,0,0,0,0,0,0,0,0,0,0,0,0,0,0,0,0,0,0,0,0,0,0,0,0,0,0,0,0,0,0],"sum_hessian":[2.1560682E4,6.899962E3,1.4660719E4,2.6605107E3,4.239451E3,1.1148888E4,3.5118313E3,2.4592996E3,2.012111E2,4.162606E3,7.684536E1,6.0730093E3,5.0758784E3,2.3967437E3,1.1150875E3,2.4176328E3,4.1666634E1,1.1615436E2,8.505674E1,3.4630186E3,6.9958734E2,2.0368711E1,5.647665E1,8.3478625E2,5.238223E3,4.8400884E3,2.357901E2,1.5589507E3,8.3779297E2,7.0385706E2,4.1123056E2,1.1312959E3,1.286337E3,1.9286318E1,2.2380318E1,7.3934944E1,4.2219418E1,5.7721516E1,2.7335224E1,3.34745E3,1.1556868E2,5.379122E2,1.6167519E2,1.8537218E1,1.831494E0,4.307643E1,1.3400217E1,8.209067E2,1.3879621E1,4.6351816E3,6.0304126E2,3.1436084E2,4.5257275E3,6.514564E1,1.7064447E2,1.5025437E3,5.6406948E1,1.2654656E2,7.112464E2,6.8412994E2,1.9727064E1,3.6371228E2,4.751828E1,1.6810911E1,1.114485E3,7.3865186E2,5.476851E2,1.8021E1,1.2653182E0,1.4948212E1,7.4321055E0,7.119761E1,2.7373393E0,2.9991146E1,1.2228271E1,3.456783E1,2.3153685E1,1.5365441E1,1.1969783E1,1.0489073E3,2.2985427E3,1.0056872E2,1.4999961E1,2.9591806E2,2.419941E2,1.4997559E2,1.169959E1,3.611082E1,6.965612E0,1.8816679E0,1.1518549E1,6.537366E1,7.55533E2,2.4291744E0,1.1450446E1,1.2965311E3,3.3386506E3,6.7132645E1,5.359086E2,1.12512054E2,2.0184879E2,1.3915398E2,4.3865737E3,5.2994846E1,1.2150791E1,3.751913E1,1.3312534E2,2.2794995E2,1.2745938E3,4.275221E1,1.3654741E1,1.691707E1,1.0962949E2,5.986582E2,1.12588196E2,2.1066232E2,4.7346765E2,1.1875056E1,7.852009E0,9.936395E0,3.5377588E2,1.3313681E1,3.42046E1],"tree_param":{"num_deleted":"0","num_feature":"31","num_nodes":"123","size_leaf_vector":"1"}},{"base_weights":[-3.856783E-4,5.153629E-1,-2.4048005E-1,7.0844096E-1,3.9664823E-1,-9.906231E-2,-7.028305E-1,7.561976E-1,1.3905893E-1,4.092991E-1,-7.132939E-1,1.3956658E-3,-2.9024792E-1,-6.731509E-1,-1.2191081E0,7.7200353E-1,-1.6675343E-1,4.1236195E-1,-2.2923712E-1,5.3112966E-1,3.129551E-1,-1.0419859E0,-1.3654049E-1,-1.818902E-1,5.4283794E-2,-3.308602E-1,4.8447055E-1,-6.82557E-1,3.4835804E-1,-7.4153304E-1,-1.2546605E-1,8.1606585E-1,4.5145687E-1,-1.1121867E0,6.4429224E-1,7.103678E-1,-1.0219784E-1,-9.5682806E-1,6.481575E-2,5.839741E-1,1.2356895E-1,3.303133E-1,-5.4462314E-1,-1.230132E0,-4.3105364E-1,1.539115E-1,-7.1277684E-1,-3.08625E-1,4.290768E-2,8.791662E-2,-1.5199043E-1,-3.1734288E-1,-1.4483624E0,1.0024403E0,1.4359216E-1,-7.6897436E-1,-5.663384E-1,1.4483914E0,-1.20133415E-1,1.4575553E-1,-1.19105734E-1,8.3848424E-2,4.352718E-3,-1.3914368E-1,4.8547186E-2,-1.24235846E-1,4.0336307E-2,1.0150098E-1,-6.69514E-2,8.027758E-2,-1.1642891E-1,7.2676055E-2,-3.9260145E-2,-1.8935677E-1,-3.3523705E-2,3.663231E-2,-9.600434E-2,-1.2106661E-1,5.9398945E-2,-1.9754807E-2,8.8984326E-2,4.01198E-2,1.6137203E-2,-9.454639E-2,1.410131E-1,1.4834352E-2,-1.359139E-1,-1.2293613E-1,3.161442E-2,6.0918845E-2,-1.05367385E-1,-2.310153E-2,-8.692723E-2,-6.5457257E-6,1.2118087E-1,1.121072E-2,-2.8593559E-2,-3.441963E-2,3.1000018E-2,-3.2636903E-2,1.3121858E-1,5.5307336E-2,-1.5201704E-1,-1.0488255E-1,1.0717397E-1,4.511727E-2,-8.564216E-2,8.7729245E-2,-7.883709E-2,-7.419466E-2,-3.752171E-2,1.768761E-1,-1.04336396E-1,-9.191919E-2,9.8224424E-2],"categories":[],"categories_nodes":[],"categories_segments":[],"categories_sizes":[],"default_left":[0,0,0,0,0,0,0,0,0,0,0,0,0,0,0,0,0,0,0,0,0,0,0,0,0,0,0,0,0,0,0,0,0,0,0,0,0,0,0,0,0,0,0,0,0,0,0,0,0,0,0,0,0,0,0,0,0,0,0,0,0,0,0,0,0,0,0,0,0,0,0,0,0,0,0,0,0,0,0,0,0,0,0,0,0,0,0,0,0,0,0,0,0,0,0,0,0,0,0,0,0,0,0,0,0,0,0,0,0,0,0,0,0,0,0],"id":9,"left_children":[1,3,5,7,9,11,13,15,17,19,21,23,25,27,29,31,33,35,37,39,41,43,45,47,49,51,53,55,57,59,-1,61,63,65,67,69,71,73,75,77,79,81,83,85,87,-1,89,91,93,95,97,99,101,103,105,107,109,111,-1,113,-1,-1,-1,-1,-1,-1,-1,-1,-1,-1,-1,-1,-1,-1,-1,-1,-1,-1,-1,-1,-1,-1,-1,-1,-1,-1,-1,-1,-1,-1,-1,-1,-1,-1,-1,-1,-1,-1,-1,-1,-1,-1,-1,-1,-1,-1,-1,-1,-1,-1,-1,-1,-1,-1,-1],"loss_changes":[2.632193E3,1.5448853E2,9.483039E2,6.9767944E1,5.903723E1,2.1334927E2,5.1233887E1,3.471045E1,2.0233246E1,4.8393616E1,8.8646145E0,7.060913E1,1.20548676E2,3.1125977E1,2.1843262E0,3.2552246E1,3.1952282E1,1.7738401E1,1.84336E1,3.924359E1,3.4605637E1,2.9310684E0,1.8861805E1,4.6484917E1,3.923062E1,5.4469574E1,3.357969E1,3.1559814E1,5.2869907E1,6.218397E0,0E0,3.543152E1,1.8472961E1,4.28426E0,1.1667131E1,1.3594524E1,1.0667019E1,1.3792894E1,1.9537685E1,2.9759155E1,5.2044254E1,2.7087784E1,3.7578884E1,4.1999016E0,5.5361924E0,0E0,7.119459E0,4.5191612E1,2.9583822E1,4.3993702E1,7.050948E1,5.329251E1,7.046402E0,1.187648E1,3.6176407E1,5.894568E1,4.5447144E1,1.621051E1,0E0,6.236335E0,0E0,0E0,0E0,0E0,0E0,0E0,0E0,0E0,0E0,0E0,0E0,0E0,0E0,0E0,0E0,0E0,0E0,0E0,0E0,0E0,0E0,0E0,0E0,0E0,0E0,0E0,0E0,0E0,0E0,0E0,0E0,0E0,0E0,0E0,0E0,0E0,0E0,0E0,0E0,0E0,0E0,0E0,0E0,0E0,0E0,0E0,0E0,0E0,0E0,0E0,0E0,0E0,0E0,0E0,0E0],"parents":[2147483647,0,0,1,1,2,2,3,3,4,4,5,5,6,6,7,7,8,8,9,9,10,10,11,11,12,12,13,13,14,14,15,15,16,16,17,17,18,18,19,19,20,20,21,21,22,22,23,23,24,24,25,25,26,26,27,27,28,28,29,29,31,31,32,32,33,33,34,34,35,35,36,36,37,37,38,38,39,39,40,40,41,41,42,42,43,43,44,44,46,46,47,47,48,48,49,49,50,50,51,51,52,52,53,53,54,54,55,55,56,56,57,57,59,59],"right_children":[2,4,6,8,10,12,14,16,18,20,22,24,26,28,30,32,34,36,38,40,42,44,46,48,50,52,54,56,58,60,-1,62,64,66,68,70,72,74,76,78,80,82,84,86,88,-1,90,92,94,96,98,100,102,104,106,108,110,112,-1,114,-1,-1,-1,-1,-1,-1,-1,-1,-1,-1,-1,-1,-1,-1,-1,-1,-1,-1,-1,-1,-1,-1,-1,-1,-1,-1,-1,-1,-1,-1,-1,-1,-1,-1,-1,-1,-1,-1,-1,-1,-1,-1,-1,-1,-1,-1,-1,-1,-1,-1,-1,-1,-1,-1,-1],"split_conditions":[-6.050335E4,-1.9266697E5,2E1,1.2E1,1.9E1,7.502897E4,-1.6061531E-2,-3.1248355E-2,9.52014E3,-3.286617E-2,-9.6276055E4,-6.556336E-2,4.663245E5,-1.7852029E-2,2.2E1,-1.4776138E-2,6.292693E5,1.5E1,-4.5255E2,-3.614629E-2,-6.735208E4,2.1142128E-3,-6.06943E-2,1.814713E7,-3.9297823E-2,3.105631E5,1.0876215E6,1.6062409E-2,1.9528119E5,8.11556E3,-1.2546605E-1,-4.361401E-2,-6.853551E-2,-2.2734228E5,4.695288E7,6.76417E3,-8.211345E-2,-6.843515E-2,-2.726194E5,-9.829726E-2,-7.310801E4,-1.0061808E-2,8.939654E4,-1.9449352E5,-7.5941625E4,1.539115E-1,-1.0630934E5,6.0420016E4,7.066746E4,3.482777E-2,-4.3872688E-2,6.292693E5,-1.5424443E0,-1.9893266E0,3.1098335E0,-8.0516934E-2,-4.705771E-2,-4.146246E-3,-1.20133415E-1,3.2413648E6,-1.19105734E-1,8.3848424E-2,4.352718E-3,-1.3914368E-1,4.8547186E-2,-1.24235846E-1,4.0336307E-2,1.0150098E-1,-6.69514E-2,8.027758E-2,-1.1642891E-1,7.2676055E-2,-3.9260145E-2,-1.8935677E-1,-3.3523705E-2,3.663231E-2,-9.600434E-2,-1.2106661E-1,5.9398945E-2,-1.9754807E-2,8.8984326E-2,4.01198E-2,1.6137203E-2,-9.454639E-2,1.410131E-1,1.4834352E-2,-1.359139E-1,-1.2293613E-1,3.161442E-2,6.0918845E-2,-1.05367385E-1,-2.310153E-2,-8.692723E-2,-6.5457257E-6,1.2118087E-1,1.121072E-2,-2.8593559E-2,-3.441963E-2,3.1000018E-2,-3.2636903E-2,1.3121858E-1,5.5307336E-2,-1.5201704E-1,-1.0488255E-1,1.0717397E-1,4.511727E-2,-8.564216E-2,8.7729245E-2,-7.883709E-2,-7.419466E-2,-3.752171E-2,1.768761E-1,-1.04336396E-1,-9.191919E-2,9.8224424E-2],"split_indices":[9,9,30,30,30,9,29,29,8,26,21,17,9,29,30,22,18,30,14,27,13,15,29,25,29,21,21,23,12,8,0,27,17,19,18,14,29,29,20,29,13,23,18,20,18,0,18,20,13,24,17,18,22,24,7,29,29,26,0,25,0,0,0,0,0,0,0,0,0,0,0,0,0,0,0,0,0,0,0,0,0,0,0,0,0,0,0,0,0,0,0,0,0,0,0,0,0,0,0,0,0,0,0,0,0,0,0,0,0,0,0,0,0,0,0],"split_type":[0,0,0,0,0,0,0,0,0,0,0,0,0,0,0,0,0,0,0,0,0,0,0,0,0,0,0,0,0,0,0,0,0,0,0,0,0,0,0,0,0,0,0,0,0,0,0,0,0,0,0,0,0,0,0,0,0,0,0,0,0,0,0,0,0,0,0,0,0,0,0,0,0,0,0,0,0,0,0,0,0,0,0,0,0,0,0,0,0,0,0,0,0,0,0,0,0,0,0,0,0,0,0,0,0,0,0,0,0,0,0,0,0,0,0],"sum_hessian":[2.1254793E4,6.7512446E3,1.4503548E4,2.5686365E3,4.1826084E3,1.1107381E4,3.396167E3,2.3695625E3,1.9907387E2,4.136097E3,4.651113E1,7.2820435E3,3.8253376E3,3.2137214E3,1.8244548E2,2.329827E3,3.97357E1,1.1420536E2,8.48685E1,1.8244724E3,2.3116245E3,2.911299E1,1.7398142E1,1.6301738E3,5.6518696E3,3.6353389E3,1.8999875E2,3.1847283E3,2.8993263E1,1.4155261E1,1.6829022E2,2.0469125E3,2.8291434E2,1.8176321E1,2.1559378E1,7.207993E1,4.2125427E1,2.3778397E1,6.1090103E1,1.6146796E3,2.0979285E2,2.266366E3,4.525854E1,2.1483332E1,7.6296577E0,4.024422E0,1.3373719E1,1.042224E3,5.879499E2,4.8600215E3,7.918482E2,3.59316E3,4.217896E1,7.464056E1,1.15358185E2,1.8233276E3,1.3614005E3,1.6994942E1,1.1998321E1,4.9871626E0,9.168098E0,1.989105E3,5.780749E1,4.404001E0,2.7851035E2,1.6904629E1,1.2716925E0,1.6992126E1,4.567251E0,6.923871E1,2.841225E0,1.0539057E1,3.1586372E1,8.668546E0,1.5109851E1,4.7699703E1,1.3390401E1,8.295693E0,1.6063839E3,1.4836203E2,6.143081E1,1.5955339E3,6.7083215E2,3.798557E1,7.2729726E0,1.8256698E0,1.9657661E1,3.376695E0,4.252963E0,2.5803514E0,1.0793367E1,9.167337E2,1.2549027E2,5.680656E2,1.9884256E1,4.565317E3,2.947046E2,5.593797E2,2.3246849E2,3.5741619E3,1.8997984E1,1.2287607E0,4.09502E1,1.9773103E0,7.2663246E1,8.864264E1,2.6715546E1,2.0717434E1,1.8026102E3,7.0799286E2,6.5340765E2,1.5315903E1,1.6790392E0,2.150481E0,2.8366816E0],"tree_param":{"num_deleted":"0","num_feature":"31","num_nodes":"115","size_leaf_vector":"1"}},{"base_weights":[-3.8644008E-4,4.3317795E-1,-2.4033052E-1,6.6174746E-1,3.1946927E-1,-1.0822415E-1,-6.5318125E-1,7.3224884E-1,3.1005263E-1,3.4400624E-1,-3.4095326E-1,-1.7587611E-2,-2.6599887E-1,-6.200178E-1,-1.1451521E0,9.084981E-1,6.4310485E-1,4.473604E-1,-2.9342818E-1,3.9731488E-1,1.2583886E-1,-1.4205772E-1,-9.590319E-1,-1.8472359E-1,3.0646363E-2,-3.0991694E-1,3.4460363E-1,-6.358704E-1,1.8646361E-2,3.8550845E-1,-1.1722025E0,9.2954457E-1,-9.000054E-1,6.6741234E-1,-3.804089E-2,5.412162E-1,-4.925452E-1,5.46984E-1,-8.610767E-1,6.7569315E-1,3.410053E-1,1.8751633E-1,-4.6132568E-1,-1.2892208E0,-2.1881124E-2,-1.1213765E0,-3.973161E-1,1.499522E-1,-2.8979927E-1,2.3616107E-2,1.0368302E0,-2.8713045E-1,-1.1133837E0,9.5613724E-1,1.4266518E-1,-5.867452E-1,-9.597668E-1,1.3095801E0,-3.3877316E-1,-7.904566E-2,1.5467076E-1,-1.2560469E-1,-8.345766E-1,9.706043E-2,3.684601E-2,-1.5329735E-1,1.6996488E-3,6.8171814E-2,-3.3625122E-2,3.2473363E-2,-1.10828795E-1,6.1479878E-2,-1.0144305E-1,1.1724227E-2,-1.7922649E-1,1.05201535E-1,-1.3700089E-1,-1.188814E-1,9.9991724E-2,7.903759E-2,1.7901916E-2,-7.392161E-2,3.5174172E-2,1.4790681E-2,1.0034843E-1,-4.3654847E-3,-1.2155898E-1,2.6252298E-2,-1.47042E-1,-2.6352648E-2,4.728656E-2,-4.777779E-2,-1.2707928E-1,1.00570455E-1,-8.735068E-2,-2.0669093E-2,4.5665883E-2,-2.2276657E-2,-1.16475426E-1,5.6984825E-3,-1.7724132E-2,5.3190142E-2,1.5446305E-1,-3.0328179E-2,6.090069E-2,-2.8532902E-2,-1.4578564E-1,1.3056362E-1,-4.987898E-2,-7.648205E-2,4.1415025E-2,-6.00305E-2,8.357787E-2,-5.8185466E-2,-1.1554702E-1,1.6500467E-1,-9.643752E-2,1.5776958E-2,-1.332501E-1,9.261823E-2,-1.1299919E-1],"categories":[],"categories_nodes":[],"categories_segments":[],"categories_sizes":[],"default_left":[0,0,0,0,0,0,0,0,0,0,0,0,0,0,0,0,0,0,0,0,0,0,0,0,0,0,0,0,0,0,0,0,0,0,0,0,0,0,0,0,0,0,0,0,0,0,0,0,0,0,0,0,0,0,0,0,0,0,0,0,0,0,0,0,0,0,0,0,0,0,0,0,0,0,0,0,0,0,0,0,0,0,0,0,0,0,0,0,0,0,0,0,0,0,0,0,0,0,0,0,0,0,0,0,0,0,0,0,0,0,0,0,0,0,0,0,0,0,0,0,0],"id":10,"left_children":[1,3,5,7,9,11,13,15,17,19,21,23,25,27,29,31,33,35,37,39,41,43,45,47,49,51,53,55,57,59,61,63,65,67,69,71,73,75,77,79,81,83,85,87,89,91,93,95,97,99,101,103,105,107,109,111,113,115,117,-1,-1,-1,119,-1,-1,-1,-1,-1,-1,-1,-1,-1,-1,-1,-1,-1,-1,-1,-1,-1,-1,-1,-1,-1,-1,-1,-1,-1,-1,-1,-1,-1,-1,-1,-1,-1,-1,-1,-1,-1,-1,-1,-1,-1,-1,-1,-1,-1,-1,-1,-1,-1,-1,-1,-1,-1,-1,-1,-1,-1,-1],"loss_changes":[2.1813105E3,1.9393652E2,7.361046E2,6.1281494E1,8.098425E1,1.4624226E2,5.2672485E1,3.1871338E1,3.460026E1,5.591504E1,2.1901733E1,5.2378582E1,1.0016943E2,3.1068115E1,8.958405E0,2.715448E1,2.2795715E1,3.0195557E1,3.7541714E1,6.0381042E1,3.435971E1,1.883111E1,3.5185204E0,5.1214077E1,3.5644516E1,6.342093E1,3.0841341E1,4.7062866E1,3.5171722E1,7.1219573E0,4.6735535E0,1.539978E1,4.937736E0,1.9296082E1,1.9125696E1,3.5988106E1,2.5037743E1,3.2362183E1,2.9713558E1,3.685562E1,3.7582916E1,2.755429E1,2.8378874E1,4.028574E0,1.5050075E1,2.583027E0,8.424898E0,3.8198204E1,6.47112E1,3.357882E1,8.143318E0,4.9205627E1,2.6872208E1,3.2226654E1,4.7065758E1,5.0683777E1,2.836502E1,1.4385601E1,2.9687721E1,0E0,0E0,0E0,2.3512028E1,0E0,0E0,0E0,0E0,0E0,0E0,0E0,0E0,0E0,0E0,0E0,0E0,0E0,0E0,0E0,0E0,0E0,0E0,0E0,0E0,0E0,0E0,0E0,0E0,0E0,0E0,0E0,0E0,0E0,0E0,0E0,0E0,0E0,0E0,0E0,0E0,0E0,0E0,0E0,0E0,0E0,0E0,0E0,0E0,0E0,0E0,0E0,0E0,0E0,0E0,0E0,0E0,0E0,0E0,0E0,0E0,0E0,0E0],"parents":[2147483647,0,0,1,1,2,2,3,3,4,4,5,5,6,6,7,7,8,8,9,9,10,10,11,11,12,12,13,13,14,14,15,15,16,16,17,17,18,18,19,19,20,20,21,21,22,22,23,23,24,24,25,25,26,26,27,27,28,28,29,29,30,30,31,31,32,32,33,33,34,34,35,35,36,36,37,37,38,38,39,39,40,40,41,41,42,42,43,43,44,44,45,45,46,46,47,47,48,48,49,49,50,50,51,51,52,52,53,53,54,54,55,55,56,56,57,57,58,58,62,62],"right_children":[2,4,6,8,10,12,14,16,18,20,22,24,26,28,30,32,34,36,38,40,42,44,46,48,50,52,54,56,58,60,62,64,66,68,70,72,74,76,78,80,82,84,86,88,90,92,94,96,98,100,102,104,106,108,110,112,114,116,118,-1,-1,-1,120,-1,-1,-1,-1,-1,-1,-1,-1,-1,-1,-1,-1,-1,-1,-1,-1,-1,-1,-1,-1,-1,-1,-1,-1,-1,-1,-1,-1,-1,-1,-1,-1,-1,-1,-1,-1,-1,-1,-1,-1,-1,-1,-1,-1,-1,-1,-1,-1,-1,-1,-1,-1,-1,-1,-1,-1,-1,-1],"split_conditions":[-3.718964E4,-1.9266697E5,2E1,9E0,1.7E1,7.633267E4,2.5752205E5,-3.472336E5,-4.8849143E-2,-3.7155285E-2,2E1,-6.556336E-2,5.3253025E5,1.5425567E-2,-1.7729135E-2,4.695288E7,2.8163122E-2,1.5425567E-2,-4.835661E-2,-2.353863E-2,-3.3301227E-2,-2.375866E-2,1.2098517E-3,-1.2477292E-2,5.3253025E5,-1.2237598E-2,1.6727784E5,2.86016E5,-3.678428E-3,-4.808541E-2,4.567255E-2,-5.177517E-2,-1.7379265E6,-4.0165357E-2,-1.9601522E5,-1.4400024E-2,-7.375656E-2,4.5794175E5,-1.7146772E5,-4.1849136E-2,-9.09507E-2,-3.4802724E-2,-3.0471113E-2,1.67338E3,5.98396E3,-6.317945E-2,2.11566E3,-7.046463E-2,-3.7160356E-2,-3.9297823E-2,3.673537E-2,-1.6458445E-3,-1.9599781E9,4.5794175E5,5.1083017E-2,2.675052E5,2.4807656E5,3.6E1,-4.266859E-2,-7.904566E-2,1.5467076E-1,-1.2560469E-1,4.5917856E5,9.706043E-2,3.684601E-2,-1.5329735E-1,1.6996488E-3,6.8171814E-2,-3.3625122E-2,3.2473363E-2,-1.10828795E-1,6.1479878E-2,-1.0144305E-1,1.1724227E-2,-1.7922649E-1,1.05201535E-1,-1.3700089E-1,-1.188814E-1,9.9991724E-2,7.903759E-2,1.7901916E-2,-7.392161E-2,3.5174172E-2,1.4790681E-2,1.0034843E-1,-4.3654847E-3,-1.2155898E-1,2.6252298E-2,-1.47042E-1,-2.6352648E-2,4.728656E-2,-4.777779E-2,-1.2707928E-1,1.00570455E-1,-8.735068E-2,-2.0669093E-2,4.5665883E-2,-2.2276657E-2,-1.16475426E-1,5.6984825E-3,-1.7724132E-2,5.3190142E-2,1.5446305E-1,-3.0328179E-2,6.090069E-2,-2.8532902E-2,-1.4578564E-1,1.3056362E-1,-4.987898E-2,-7.648205E-2,4.1415025E-2,-6.00305E-2,8.357787E-2,-5.8185466E-2,-1.1554702E-1,1.6500467E-1,-9.643752E-2,1.5776958E-2,-1.332501E-1,9.261823E-2,-1.1299919E-1],"split_indices":[9,9,30,30,30,9,21,9,27,27,30,17,18,26,27,18,24,26,23,24,29,23,28,23,18,29,13,18,24,1,22,29,21,27,12,23,27,21,18,1,29,29,27,0,0,29,0,17,29,29,23,27,25,21,23,10,12,30,29,0,0,0,20,0,0,0,0,0,0,0,0,0,0,0,0,0,0,0,0,0,0,0,0,0,0,0,0,0,0,0,0,0,0,0,0,0,0,0,0,0,0,0,0,0,0,0,0,0,0,0,0,0,0,0,0,0,0,0,0,0,0],"split_type":[0,0,0,0,0,0,0,0,0,0,0,0,0,0,0,0,0,0,0,0,0,0,0,0,0,0,0,0,0,0,0,0,0,0,0,0,0,0,0,0,0,0,0,0,0,0,0,0,0,0,0,0,0,0,0,0,0,0,0,0,0,0,0,0,0,0,0,0,0,0,0,0,0,0,0,0,0,0,0,0,0,0,0,0,0,0,0,0,0,0,0,0,0,0,0,0,0,0,0,0,0,0,0,0,0,0,0,0,0,0,0,0,0,0,0,0,0,0,0,0,0],"sum_hessian":[2.096585E4,7.469005E3,1.3496844E4,2.4796868E3,4.9893184E3,1.0225948E4,3.2708958E3,2.064709E3,4.1497766E2,4.8110503E3,1.7826802E2,6.495565E3,3.7303833E3,3.0664487E3,2.0444705E2,6.904362E2,1.3742727E3,3.3827084E2,7.670682E1,3.8656643E3,9.4538605E2,1.357984E2,4.2469612E1,1.4541045E3,5.0414604E3,3.4805354E3,2.4984793E2,2.9921829E3,7.426593E1,3.3201933E0,2.0112686E2,6.829741E2,7.4621E0,1.3269395E3,4.733328E1,3.079447E2,3.0326136E1,3.093842E1,4.5768394E1,6.485284E2,3.2171357E3,8.561357E2,8.925035E1,1.1954762E1,1.2384364E2,3.2174374E1,1.0295238E1,3.4734653E2,1.1067579E3,5.007496E3,3.396415E1,3.3858687E3,9.4666695E1,6.1095776E1,1.8875215E2,2.6005674E3,3.9161526E2,1.5525758E1,5.8740177E1,1.8082376E0,1.5119557E0,1.5893695E2,4.2189907E1,6.357226E2,4.7251534E1,4.017361E0,3.444739E0,1.3086079E3,1.833153E1,3.587093E1,1.146235E1,2.9461417E2,1.3330551E1,2.126096E1,9.065176E0,2.4844387E1,6.0940323E0,3.9222214E1,6.54618E0,5.263923E2,1.22136086E2,3.0992933E1,3.1861428E3,8.176269E2,3.850879E1,5.81229E1,3.1127453E1,1.2030804E0,1.0751681E1,8.351862E1,4.0325016E1,6.853046E0,2.532133E1,2.3270307E0,7.9682074E0,1.6075003E2,1.865965E2,1.0291654E3,7.7592575E1,4.294724E3,7.1277203E2,1.8056858E1,1.5907291E1,3.3265745E3,5.9294228E1,2.834893E1,6.6317764E1,4.9344883E1,1.1750891E1,4.304607E1,1.4570609E2,2.576585E3,2.398263E1,1.3496497E2,2.566503E2,1.3742537E1,1.7832214E0,3.97295E1,1.9010675E1,5.7547536E0,3.6435154E1],"tree_param":{"num_deleted":"0","num_feature":"31","num_nodes":"121","size_leaf_vector":"1"}},{"base_weights":[-4.0598414E-4,4.4327867E-1,-1.9820714E-1,6.0511494E-1,3.2758868E-1,-8.026162E-2,-6.102099E-1,7.2292525E-1,2.8876844E-1,4.3632627E-1,1.2619281E-1,1.0309686E-4,-2.4149972E-1,-5.809381E-1,-1.1604574E0,6.1498815E-1,8.8439643E-1,4.2359567E-1,-2.4854724E-1,4.8533177E-1,-1.7192023E-1,5.8603275E-1,7.173096E-2,1.2736206E-1,-5.7132877E-2,-2.7579919E-1,4.1329798E-1,-5.355189E-1,-8.0247736E-1,-6.489779E-1,-1.2011009E-1,-7.4971163E-1,6.2835544E-1,-3.8664302E-1,9.056294E-1,3.040864E-1,8.292073E-1,-5.6410515E-1,5.385944E-1,5.250764E-1,-3.776639E-2,7.274595E-2,-8.376978E-1,6.653975E-1,-6.672419E-1,9.1354474E-2,-1.2153228E-1,-4.3070605E-1,1.6527657E-1,-1.5145904E-1,7.019854E-2,-4.9140155E-1,-2.1073003E-1,-1.1494732E0,5.0780433E-1,-6.385316E-1,-3.4923184E-1,-9.373429E-1,-5.612732E-2,2.1994433E-1,-1.12545386E-1,1.0097653E-1,-1.367843E-1,8.8184185E-2,5.2596767E-2,-8.4483005E-2,1.0397833E-1,9.6790954E-2,5.2022308E-2,3.3647697E-2,-1.2499936E-1,8.816033E-2,-8.6462855E-2,-1.8920163E-2,-1.4956278E-1,7.8476176E-2,-1.0644507E-1,-5.6144852E-2,5.4207046E-2,-1.17244415E-1,3.467646E-2,-8.695912E-3,8.995924E-2,9.97132E-2,-1.0508547E-1,7.111374E-2,-1.3036221E-1,-2.4735236E-1,6.8258E-2,-3.690627E-2,1.386012E-2,2.129048E-4,-1.212607E-1,-2.3262277E-2,2.1179488E-2,-1.2816367E-2,-1.0377868E-1,2.23468E-2,-1.6247943E-2,9.481489E-3,-6.704136E-2,4.377988E-2,-2.3569452E-2,6.184238E-4,-1.2982035E-1,-1.690146E-1,5.6614406E-2,-6.691357E-2,4.328426E-2,-6.455263E-2,-5.7116747E-3,-5.372237E-2,-1.1073845E-1,2.8294383E-2,-1.09634936E-1,-8.521766E-2,9.818868E-2],"categories":[],"categories_nodes":[],"categories_segments":[],"categories_sizes":[],"default_left":[0,0,0,0,0,0,0,0,0,0,0,0,0,0,0,0,0,0,0,0,0,0,0,0,0,0,0,0,0,0,0,0,0,0,0,0,0,0,0,0,0,0,0,0,0,0,0,0,0,0,0,0,0,0,0,0,0,0,0,0,0,0,0,0,0,0,0,0,0,0,0,0,0,0,0,0,0,0,0,0,0,0,0,0,0,0,0,0,0,0,0,0,0,0,0,0,0,0,0,0,0,0,0,0,0,0,0,0,0,0,0,0,0,0,0,0,0],"id":11,"left_children":[1,3,5,7,9,11,13,15,17,19,21,23,25,27,29,31,33,35,37,39,41,43,45,47,49,51,53,55,57,59,-1,61,63,65,67,69,71,73,75,77,79,81,83,85,87,89,-1,91,93,95,97,99,101,103,105,107,109,111,113,115,-1,-1,-1,-1,-1,-1,-1,-1,-1,-1,-1,-1,-1,-1,-1,-1,-1,-1,-1,-1,-1,-1,-1,-1,-1,-1,-1,-1,-1,-1,-1,-1,-1,-1,-1,-1,-1,-1,-1,-1,-1,-1,-1,-1,-1,-1,-1,-1,-1,-1,-1,-1,-1,-1,-1,-1,-1],"loss_changes":[1.8159529E3,1.1925964E2,6.95408E2,9.8871704E1,8.147156E1,1.4418942E2,5.0626587E1,3.3206238E1,5.248786E1,7.213159E1,3.2682037E1,5.410535E1,8.324405E1,3.0019958E1,2.5440369E0,2.1703583E1,2.1226685E1,2.7785225E1,3.6487335E1,4.6531067E1,2.953839E1,1.419323E1,2.9647173E1,4.8830772E1,6.1550224E1,4.92471E1,2.7852715E1,4.802661E1,5.156967E1,6.0207934E0,0E0,1.4155976E1,2.9465363E1,9.64333E0,1.7766235E1,2.2988983E1,1.2393394E1,3.62027E1,1.7487617E1,3.8696655E1,6.974095E1,1.7674295E1,2.0098747E1,1.2680172E1,2.2977371E1,2.5128548E1,0E0,4.9711494E1,4.0003548E1,6.0645576E1,7.781907E1,8.5566574E1,4.388086E1,1.8703985E0,2.3370998E1,5.3335327E1,7.76432E1,2.8953552E1,2.8369413E1,5.554268E0,0E0,0E0,0E0,0E0,0E0,0E0,0E0,0E0,0E0,0E0,0E0,0E0,0E0,0E0,0E0,0E0,0E0,0E0,0E0,0E0,0E0,0E0,0E0,0E0,0E0,0E0,0E0,0E0,0E0,0E0,0E0,0E0,0E0,0E0,0E0,0E0,0E0,0E0,0E0,0E0,0E0,0E0,0E0,0E0,0E0,0E0,0E0,0E0,0E0,0E0,0E0,0E0,0E0,0E0,0E0,0E0,0E0],"parents":[2147483647,0,0,1,1,2,2,3,3,4,4,5,5,6,6,7,7,8,8,9,9,10,10,11,11,12,12,13,13,14,14,15,15,16,16,17,17,18,18,19,19,20,20,21,21,22,22,23,23,24,24,25,25,26,26,27,27,28,28,29,29,31,31,32,32,33,33,34,34,35,35,36,36,37,37,38,38,39,39,40,40,41,41,42,42,43,43,44,44,45,45,47,47,48,48,49,49,50,50,51,51,52,52,53,53,54,54,55,55,56,56,57,57,58,58,59,59],"right_children":[2,4,6,8,10,12,14,16,18,20,22,24,26,28,30,32,34,36,38,40,42,44,46,48,50,52,54,56,58,60,-1,62,64,66,68,70,72,74,76,78,80,82,84,86,88,90,-1,92,94,96,98,100,102,104,106,108,110,112,114,116,-1,-1,-1,-1,-1,-1,-1,-1,-1,-1,-1,-1,-1,-1,-1,-1,-1,-1,-1,-1,-1,-1,-1,-1,-1,-1,-1,-1,-1,-1,-1,-1,-1,-1,-1,-1,-1,-1,-1,-1,-1,-1,-1,-1,-1,-1,-1,-1,-1,-1,-1,-1,-1,-1,-1,-1,-1],"split_conditions":[-6.320648E4,-6.317945E-2,2E1,-5.7235453E-3,-1.6986776E-2,7.633267E4,-1.6061531E-2,8.231231E8,-4.1849136E-2,-3.304279E-2,-5.232499E-2,-3.619709E4,4.663245E5,2.86016E5,2.2E1,-1.5424443E0,-1.9893266E0,-8.258594E4,5.2597146E-2,-3.4835875E-2,9E0,5E0,2E1,-3.815221E4,4.725867E4,-1.7017898E-3,-1.374947E0,1.6062409E-2,1.5425567E-2,8.11556E3,-1.2011009E-1,-1.4593813E-1,-7.819261E-2,2.6E1,-4.556882E-2,1.9E1,-3.88568E-2,3.2413648E6,-7.646714E-2,-4.3557828E5,-5.2881043E-2,2.5752205E5,-7.143416E-2,8.343594E-3,-4.9681272E-2,-5.4686252E-2,-1.2153228E-1,-3.7727106E-2,-1.5944173E5,-3.304279E-2,-2.6541213E-2,9.363068E4,-8.0516934E-2,-1.7379265E6,-5.609434E-2,2.369855E5,-4.7749218E-2,2.4807656E5,4.5917856E5,3.2413648E6,-1.12545386E-1,1.0097653E-1,-1.367843E-1,8.8184185E-2,5.2596767E-2,-8.4483005E-2,1.0397833E-1,9.6790954E-2,5.2022308E-2,3.3647697E-2,-1.2499936E-1,8.816033E-2,-8.6462855E-2,-1.8920163E-2,-1.4956278E-1,7.8476176E-2,-1.0644507E-1,-5.6144852E-2,5.4207046E-2,-1.17244415E-1,3.467646E-2,-8.695912E-3,8.995924E-2,9.97132E-2,-1.0508547E-1,7.111374E-2,-1.3036221E-1,-2.4735236E-1,6.8258E-2,-3.690627E-2,1.386012E-2,2.129048E-4,-1.212607E-1,-2.3262277E-2,2.1179488E-2,-1.2816367E-2,-1.0377868E-1,2.23468E-2,-1.6247943E-2,9.481489E-3,-6.704136E-2,4.377988E-2,-2.3569452E-2,6.184238E-4,-1.2982035E-1,-1.690146E-1,5.6614406E-2,-6.691357E-2,4.328426E-2,-6.455263E-2,-5.7116747E-3,-5.372237E-2,-1.1073845E-1,2.8294383E-2,-1.09634936E-1,-8.521766E-2,9.818868E-2],"split_indices":[9,29,30,22,22,9,29,25,1,29,26,13,9,18,30,22,24,20,24,27,30,30,30,18,21,23,23,23,26,8,0,26,29,30,27,30,27,25,29,10,29,21,17,22,1,1,0,27,13,29,27,12,29,21,1,19,29,12,20,25,0,0,0,0,0,0,0,0,0,0,0,0,0,0,0,0,0,0,0,0,0,0,0,0,0,0,0,0,0,0,0,0,0,0,0,0,0,0,0,0,0,0,0,0,0,0,0,0,0,0,0,0,0,0,0,0,0],"split_type":[0,0,0,0,0,0,0,0,0,0,0,0,0,0,0,0,0,0,0,0,0,0,0,0,0,0,0,0,0,0,0,0,0,0,0,0,0,0,0,0,0,0,0,0,0,0,0,0,0,0,0,0,0,0,0,0,0,0,0,0,0,0,0,0,0,0,0,0,0,0,0,0,0,0,0,0,0,0,0,0,0,0,0,0,0,0,0,0,0,0,0,0,0,0,0,0,0,0,0,0,0,0,0,0,0,0,0,0,0,0,0,0,0,0,0,0,0],"sum_hessian":[2.0689945E4,6.3793296E3,1.4310615E4,2.6575327E3,3.7217969E3,1.1126567E4,3.1840479E3,1.9354637E3,7.220691E2,2.4161199E3,1.3056771E3,7.426187E3,3.70038E3,3.0251719E3,1.5887596E2,1.162912E3,7.725517E2,5.7739624E2,1.446729E2,2.236158E3,1.7996176E2,1.3723076E2,1.1684463E3,2.3034504E3,5.122737E3,3.5167454E3,1.8363454E2,2.5133179E3,5.11854E2,1.2944371E1,1.459316E2,1.0745973E1,1.152166E3,1.2410788E1,7.601409E2,4.473414E2,1.3005482E2,1.0347433E2,4.1198563E1,2.0782502E3,1.5790767E2,1.3225148E2,4.7710278E1,1.2949918E2,7.7315865E0,1.1518138E3,1.6632513E1,1.458791E2,2.1575713E3,2.9426523E3,2.1800845E3,8.137816E2,2.7029639E3,9.835205E0,1.7379933E2,1.6168225E3,8.9649536E2,4.3330066E2,7.855336E1,4.774953E0,8.169418E0,2.6290236E0,8.116949E0,3.2929694E2,8.228691E2,9.70208E0,2.7087073E0,6.5309235E2,1.0704858E2,4.3897565E2,8.365763E0,1.26617645E2,3.437179E0,7.463828E1,2.8836046E1,3.615671E1,5.041851E0,3.1511452E1,2.0467389E3,3.94498E1,1.1845787E2,1.115923E2,2.065918E1,4.5829406E0,4.312734E1,1.2718357E2,2.315609E0,2.9506516E0,4.780935E0,1.0656188E2,1.045252E3,9.454134E1,5.1337757E1,2.2541953E2,1.9321517E3,2.8684065E3,7.424581E1,1.3143418E3,8.657426E2,1.9048024E2,6.233014E2,9.957817E1,2.6033855E3,1.2307222E0,8.604483E0,3.7706118E0,1.7002872E2,1.5722854E3,4.4537186E1,4.444633E2,4.5203207E2,1.3046562E2,3.0283502E2,5.979165E1,1.876171E1,1.9345053E0,2.8404477E0],"tree_param":{"num_deleted":"0","num_feature":"31","num_nodes":"117","size_leaf_vector":"1"}},{"base_weights":[-4.4405926E-4,4.07953E-1,-1.8051094E-1,5.461747E-1,2.8217217E-1,-6.5415636E-2,-5.452989E-1,7.01888E-1,4.2420602E-1,2.9962486E-1,-7.8342044E-1,3.4684416E-2,-1.7769468E-1,-4.6019992E-1,-7.45439E-1,7.55374E-1,2.4110103E-1,4.781921E-1,-1.03996545E-1,3.6479494E-1,7.823035E-2,-1.1779261E0,-3.5439405E-1,1.9368528E-3,3.0568287E-1,-2.0288302E-1,3.0716267E-1,-5.890458E-1,-2.1691374E-1,-6.218643E-1,-9.9070036E-1,7.6988363E-1,-9.3483365E-1,1.1955842E0,7.976636E-2,4.9071807E-1,-8.994442E-1,-2.4825619E-1,9.448409E-1,5.6866807E-1,2.607715E-1,1.3570315E-1,-5.4539424E-1,-1.2582417E0,4.4948872E-2,1.3461155E-1,-1.0197207E0,3.131454E-2,-3.7966636E-1,-1.8823852E-1,3.5126013E-1,-1.6265436E-1,-5.728786E-1,8.105875E-1,1.0850165E-1,-2.6065427E-1,-6.6610056E-1,1.3162981E-1,-4.2033863E-1,-7.528306E-1,4.8650913E-2,-1.0764261E0,-3.659852E-1,1.0045808E-1,6.924751E-2,-1.6219185E-1,2.5522832E-2,-1.1050397E-3,1.3345419E-1,-1.4592302E-2,8.2016E-2,5.1304396E-2,-3.417655E-2,-1.2517861E-3,-2.0617934E-1,7.672095E-3,-7.182474E-2,1.2572925E-1,-3.7153497E-2,-1.2066726E-1,5.8567237E-2,-7.080404E-2,2.934437E-2,3.0531729E-2,-8.7109655E-3,-1.8399498E-1,8.89861E-3,-7.736557E-2,-1.3635242E-1,5.2322447E-2,-1.02731265E-1,1.8701646E-2,-1.2161528E-1,7.292711E-3,-2.156878E-2,-5.9895992E-2,4.161402E-2,-1.9839978E-2,4.5884836E-2,5.727929E-2,-1.8284498E-2,-1.1752641E-1,-3.8775932E-2,1.1430659E-1,-4.1994814E-2,-7.290104E-2,3.5679605E-2,6.0928363E-2,-4.232407E-2,-4.696468E-2,-7.68693E-2,3.0527402E-2,-1.3020784E-1,-1.03856266E-1,-2.1865781E-2,-9.6055925E-2,-3.8695738E-2,5.0891068E-2,-1.2759136E-1,8.937568E-3,-1.1148155E-1,9.4046205E-2,-9.8959945E-2],"categories":[],"categories_nodes":[],"categories_segments":[],"categories_sizes":[],"default_left":[0,0,0,0,0,0,0,0,0,0,0,0,0,0,0,0,0,0,0,0,0,0,0,0,0,0,0,0,0,0,0,0,0,0,0,0,0,0,0,0,0,0,0,0,0,0,0,0,0,0,0,0,0,0,0,0,0,0,0,0,0,0,0,0,0,0,0,0,0,0,0,0,0,0,0,0,0,0,0,0,0,0,0,0,0,0,0,0,0,0,0,0,0,0,0,0,0,0,0,0,0,0,0,0,0,0,0,0,0,0,0,0,0,0,0,0,0,0,0,0,0,0,0],"id":12,"left_children":[1,3,5,7,9,11,13,15,17,19,21,23,25,27,29,31,33,35,37,39,41,43,45,47,49,51,53,55,57,59,61,63,65,67,69,71,73,75,77,79,81,83,85,87,-1,89,91,93,95,-1,97,99,101,103,105,107,109,111,113,115,117,119,121,-1,-1,-1,-1,-1,-1,-1,-1,-1,-1,-1,-1,-1,-1,-1,-1,-1,-1,-1,-1,-1,-1,-1,-1,-1,-1,-1,-1,-1,-1,-1,-1,-1,-1,-1,-1,-1,-1,-1,-1,-1,-1,-1,-1,-1,-1,-1,-1,-1,-1,-1,-1,-1,-1,-1,-1,-1,-1,-1,-1],"loss_changes":[1.5020385E3,1.0850574E2,5.951129E2,5.6235413E1,6.1128784E1,1.21124794E2,5.755841E1,3.200354E1,4.771988E1,4.646347E1,8.559841E0,5.0567257E1,6.2096054E1,7.4727234E1,3.0075195E1,2.940448E1,2.1046125E1,2.6617065E1,2.3813828E1,5.2641663E1,2.6384478E1,4.121006E0,8.869273E0,5.7015263E1,6.192471E1,7.178642E1,2.5039028E1,3.9315918E1,5.8790436E1,5.9404114E1,1.7685333E1,2.0383118E1,8.923499E0,3.3311386E0,1.9922768E1,2.8126007E1,1.4428471E1,2.1100416E1,8.302841E0,2.606903E1,5.2437714E1,2.545834E1,5.119791E1,2.8104782E-1,0E0,7.9213667E0,2.9501753E0,4.85526E1,6.369335E1,0E0,3.572841E1,6.480253E1,5.23098E1,2.9502064E1,3.7962574E1,4.2439972E1,2.5101624E1,7.659302E1,6.502403E1,4.261847E1,6.856964E1,1.3362061E1,3.5352993E1,0E0,0E0,0E0,0E0,0E0,0E0,0E0,0E0,0E0,0E0,0E0,0E0,0E0,0E0,0E0,0E0,0E0,0E0,0E0,0E0,0E0,0E0,0E0,0E0,0E0,0E0,0E0,0E0,0E0,0E0,0E0,0E0,0E0,0E0,0E0,0E0,0E0,0E0,0E0,0E0,0E0,0E0,0E0,0E0,0E0,0E0,0E0,0E0,0E0,0E0,0E0,0E0,0E0,0E0,0E0,0E0,0E0,0E0,0E0,0E0],"parents":[2147483647,0,0,1,1,2,2,3,3,4,4,5,5,6,6,7,7,8,8,9,9,10,10,11,11,12,12,13,13,14,14,15,15,16,16,17,17,18,18,19,19,20,20,21,21,22,22,23,23,24,24,25,25,26,26,27,27,28,28,29,29,30,30,31,31,32,32,33,33,34,34,35,35,36,36,37,37,38,38,39,39,40,40,41,41,42,42,43,43,45,45,46,46,47,47,48,48,50,50,51,51,52,52,53,53,54,54,55,55,56,56,57,57,58,58,59,59,60,60,61,61,62,62],"right_children":[2,4,6,8,10,12,14,16,18,20,22,24,26,28,30,32,34,36,38,40,42,44,46,48,50,52,54,56,58,60,62,64,66,68,70,72,74,76,78,80,82,84,86,88,-1,90,92,94,96,-1,98,100,102,104,106,108,110,112,114,116,118,120,122,-1,-1,-1,-1,-1,-1,-1,-1,-1,-1,-1,-1,-1,-1,-1,-1,-1,-1,-1,-1,-1,-1,-1,-1,-1,-1,-1,-1,-1,-1,-1,-1,-1,-1,-1,-1,-1,-1,-1,-1,-1,-1,-1,-1,-1,-1,-1,-1,-1,-1,-1,-1,-1,-1,-1,-1,-1,-1,-1,-1],"split_conditions":[-6.320648E4,-3.5311267E-2,1.9E1,-6.342573E-2,1.9E1,3.180605E4,-3.6020156E-2,-1.123352E-3,-3.614629E-2,-9.551884E-3,-1.2930591E5,1.238639E4,5.3253025E5,-4.4760823E-2,2.680489E5,1.3415516E5,-5.123146E-2,3.0998196E-3,-6.735208E4,-6.248297E-2,-3.849623E-2,9.47498E5,-5.2580203E4,-3.430807E-2,-7.4425E-2,2.959245E5,1.6727784E5,-9.182869E4,-6.6431253E-3,2.2083673E5,5.7249114E-2,-4.9484644E-2,2.675052E5,2.383E3,-7.4141836E4,-2.8920583E-2,-3.699943E-2,-7.9788E2,-2.973305E-2,-1.5424443E0,-5.544429E-2,-6.4514436E-2,2.1868625E4,-5.4273553E-2,4.4948872E-2,4.7891014E-3,-1.0477553E5,-1.57571E3,-3.9909553E-2,-1.8823852E-1,2.0156287E4,-7.819261E-2,1.24391695E5,4.5794175E5,5.1083017E-2,-7.913024E-2,-2.0086255E-3,4.6E1,7.4091665E-3,-2.6874613E-2,-2.5661243E-2,1.9528119E5,5.3253025E5,1.0045808E-1,6.924751E-2,-1.6219185E-1,2.5522832E-2,-1.1050397E-3,1.3345419E-1,-1.4592302E-2,8.2016E-2,5.1304396E-2,-3.417655E-2,-1.2517861E-3,-2.0617934E-1,7.672095E-3,-7.182474E-2,1.2572925E-1,-3.7153497E-2,-1.2066726E-1,5.8567237E-2,-7.080404E-2,2.934437E-2,3.0531729E-2,-8.7109655E-3,-1.8399498E-1,8.89861E-3,-7.736557E-2,-1.3635242E-1,5.2322447E-2,-1.02731265E-1,1.8701646E-2,-1.2161528E-1,7.292711E-3,-2.156878E-2,-5.9895992E-2,4.161402E-2,-1.9839978E-2,4.5884836E-2,5.727929E-2,-1.8284498E-2,-1.1752641E-1,-3.8775932E-2,1.1430659E-1,-4.1994814E-2,-7.290104E-2,3.5679605E-2,6.0928363E-2,-4.232407E-2,-4.696468E-2,-7.68693E-2,3.0527402E-2,-1.3020784E-1,-1.03856266E-1,-2.1865781E-2,-9.6055925E-2,-3.8695738E-2,5.0891068E-2,-1.2759136E-1,8.937568E-3,-1.1148155E-1,9.4046205E-2,-9.8959945E-2],"split_indices":[9,26,30,29,30,9,29,22,27,23,10,13,18,29,18,10,1,22,13,29,7,14,18,29,29,18,13,19,26,13,23,1,10,0,21,29,28,14,27,22,1,29,18,1,0,22,12,13,17,0,20,29,21,21,23,29,24,30,23,29,29,12,18,0,0,0,0,0,0,0,0,0,0,0,0,0,0,0,0,0,0,0,0,0,0,0,0,0,0,0,0,0,0,0,0,0,0,0,0,0,0,0,0,0,0,0,0,0,0,0,0,0,0,0,0,0,0,0,0,0,0,0,0],"split_type":[0,0,0,0,0,0,0,0,0,0,0,0,0,0,0,0,0,0,0,0,0,0,0,0,0,0,0,0,0,0,0,0,0,0,0,0,0,0,0,0,0,0,0,0,0,0,0,0,0,0,0,0,0,0,0,0,0,0,0,0,0,0,0,0,0,0,0,0,0,0,0,0,0,0,0,0,0,0,0,0,0,0,0,0,0,0,0,0,0,0,0,0,0,0,0,0,0,0,0,0,0,0,0,0,0,0,0,0,0,0,0,0,0,0,0,0,0,0,0,0,0,0,0],"sum_hessian":[2.0423117E4,6.2489795E3,1.4174138E4,2.9756584E3,3.273321E3,1.0775506E4,3.3986316E3,1.3049363E3,1.6707223E3,3.2212805E3,5.2040565E1,5.697082E3,5.0784243E3,2.38699E3,1.01164166E3,1.168646E3,1.3629025E2,1.5158829E3,1.5483939E2,2.4882014E3,7.330792E2,2.6201626E1,2.583894E1,5.083765E3,6.133171E2,4.828182E3,2.5024243E2,1.5595966E3,8.2739343E2,6.750526E2,3.3658902E2,1.159239E3,9.407012E0,1.8779133E1,1.17511116E2,1.502862E3,1.3020783E1,1.3678847E2,1.8050915E1,8.3913434E2,1.649067E3,6.719364E2,6.1142788E1,2.5185524E1,1.0161021E0,1.5352642E1,1.0486298E1,4.72122E3,3.6254477E2,1.169233E1,6.0162476E2,4.3560044E3,4.7217746E2,6.9936584E1,1.8030585E2,2.9723297E2,1.2623636E3,3.0506128E2,5.223321E2,5.6464276E2,1.10409836E2,2.953385E2,4.1250523E1,2.8454416E2,8.746948E2,5.733739E0,3.673273E0,2.0343552E0,1.6744778E1,9.0674355E1,2.6836763E1,1.4639841E3,3.8878025E1,7.9586973E0,5.062086E0,8.136506E1,5.5423412E1,1.4624553E1,3.4263623E0,7.297269E0,8.318371E2,5.312446E1,1.5959425E3,3.8130292E2,2.9063348E2,1.9483393E1,4.1659393E1,5.9852877E0,1.9200235E1,1.1916713E1,3.435929E0,1.4747062E0,9.011592E0,4.0411167E3,6.801035E2,2.844176E2,7.812716E1,9.834477E1,5.0328E2,1.15661064E2,4.2403433E3,1.09737755E2,3.624397E2,5.5115906E1,1.4820683E1,4.078831E1,1.3951753E2,4.637116E1,2.5086182E2,4.3498685E2,8.273768E2,2.728072E2,3.2254093E1,1.2746294E2,3.9486917E2,3.5912192E2,2.0552087E2,8.2395004E1,2.8014832E1,9.372996E0,2.859655E2,1.3164122E1,2.80864E1],"tree_param":{"num_deleted":"0","num_feature":"31","num_nodes":"123","size_leaf_vector":"1"}},{"base_weights":[-5.13249E-4,3.749496E-1,-1.6433227E-1,5.4145145E-1,2.7803472E-1,-6.49349E-2,-5.3139603E-1,6.7007303E-1,3.654267E-1,3.2789722E-1,5.9067603E-2,1.9997628E-3,-2.0098121E-1,-5.0277287E-1,-1.1151378E0,7.090147E-1,5.6302823E-2,3.9028037E-1,-7.979611E-1,3.638562E-1,-7.065437E-2,-6.1216253E-1,1.2731814E-1,-1.8383491E-1,3.355354E-2,6.6074026E-1,-2.1967027E-1,-3.0098116E-1,-5.5430764E-1,-5.7736117E-1,-1.1611426E-1,7.207057E-1,-8.834426E-1,-3.7654924E-1,3.8123685E-1,5.4172564E-1,1.9439018E-1,2.7212447E-1,-1.2116454E0,4.2313853E-1,1.8921608E-1,6.4926827E-1,-2.3409957E-1,-1.1070523E0,1.8649213E-1,2.1449664E-1,-3.3214188E-1,-3.3293507E-1,8.4271E-2,1.9317749E-1,5.206223E-3,-9.81143E-1,8.052777E-1,-5.898955E-1,-1.8520546E-1,-7.0998734E-3,-7.6734126E-1,-3.8290805E-1,-6.4837223E-1,2.7365705E-1,-1.0779196E-1,8.20651E-2,5.9440732E-2,3.4229548E-3,-2.4238896E-1,4.9378097E-2,-1.2727723E-1,1.0128098E-1,-1.3133841E-2,6.933186E-2,1.6696023E-2,4.39766E-2,-1.9418484E-2,8.69554E-2,-8.655512E-2,-1.8200114E-2,-1.4517562E-1,3.923804E-2,8.495146E-2,-9.9722125E-2,2.5122548E-2,1.1646106E-2,1.0281272E-1,-1.0588121E-1,-1.3848481E-3,-1.67888E-1,-5.976103E-2,5.0206233E-2,-1.587012E-1,6.6791065E-2,1.2934411E-2,4.363431E-3,-1.2718497E-1,-6.6790275E-2,-2.0788819E-2,1.0653635E-1,1.5893484E-3,2.3020837E-2,-4.828001E-2,-1.990342E-2,4.2100577E-3,-5.0783954E-3,-1.17306784E-1,1.0934931E-1,3.5457015E-2,-2.7520705E-2,-8.944489E-2,1.21205546E-1,-1.944968E-2,-4.0000983E-2,5.4552007E-2,-8.580044E-2,9.5283054E-2,-3.2271154E-2,-1.0254635E-1,-8.143055E-2,-5.482894E-2,-7.9859376E-2,9.700017E-2],"categories":[],"categories_nodes":[],"categories_segments":[],"categories_sizes":[],"default_left":[0,0,0,0,0,0,0,0,0,0,0,0,0,0,0,0,0,0,0,0,0,0,0,0,0,0,0,0,0,0,0,0,0,0,0,0,0,0,0,0,0,0,0,0,0,0,0,0,0,0,0,0,0,0,0,0,0,0,0,0,0,0,0,0,0,0,0,0,0,0,0,0,0,0,0,0,0,0,0,0,0,0,0,0,0,0,0,0,0,0,0,0,0,0,0,0,0,0,0,0,0,0,0,0,0,0,0,0,0,0,0,0,0,0,0,0,0,0,0],"id":13,"left_children":[1,3,5,7,9,11,13,15,17,19,21,23,25,27,29,31,33,35,37,39,41,43,45,47,49,51,53,55,57,59,-1,61,63,65,67,69,71,73,75,77,79,81,83,85,87,89,91,93,95,97,99,101,103,105,107,109,111,113,115,117,-1,-1,-1,-1,-1,-1,-1,-1,-1,-1,-1,-1,-1,-1,-1,-1,-1,-1,-1,-1,-1,-1,-1,-1,-1,-1,-1,-1,-1,-1,-1,-1,-1,-1,-1,-1,-1,-1,-1,-1,-1,-1,-1,-1,-1,-1,-1,-1,-1,-1,-1,-1,-1,-1,-1,-1,-1,-1,-1],"loss_changes":[1.2409929E3,9.874945E1,5.124792E2,5.078424E1,4.230063E1,1.0066987E2,4.94505E1,3.10578E1,2.7889664E1,4.5269165E1,3.306954E1,4.3459938E1,5.8854996E1,2.9523743E1,2.770584E0,2.3412842E1,1.121415E1,2.7618408E1,9.3064165E0,2.9900665E1,3.0992317E1,2.654526E1,2.6287888E1,4.3032276E1,